GIS
1
0.0
2
NaoEhPar
ehPar
3
865 0
1935 0 1
11 1
2811
ultimaPalavraB=conserv
primeiraPalavraB=msn
ultimaPalavraA=almoc
ultimaPalavraB=amanh
ultimaPalavraA=temp
ultimaPalavraA=decisa
ultimaPalavraB=trat
ultimaPalavraA=divorci
ultimaPalavraB=ansiedad
ultimaPalavraB=iguatem
primeiraPalavraB=genteeeeeeeeeee
primeiraPalavraA=liber
ultimaPalavraB=process
primeiraPalavraB=adelin
ultimaPalavraA=527
ultimaPalavraB=respir
primeiraPalavraB=continu
ultimaPalavraA=mesquinh
ultimaPalavraA=mongol
primeiraPalavraA=mand
ultimaPalavraA=alan
ultimaPalavraA=acab
primeiraPalavraA=eugen
ultimaPalavraB=luciaaaa
ultimaPalavraB=tsc
ultimaPalavraA=dinov
ultimaPalavraB=crianc
ultimaPalavraB=possivel
primeiraPalavraB=mor
primeiraPalavraB=aplaus
primeiraPalavraB=deix
ultimaPalavraA=inconstitucional
primeiraPalavraB=chegu
primeiraPalavraA=lhe
ultimaPalavraA=abr
primeiraPalavraB=faelaa
ultimaPalavraA=alici
primeiraPalavraB=part
primeiraPalavraB=qto
primeiraPalavraA=marc
ultimaPalavraA=resist
primeiraPalavraA=diog
primeiraPalavraA=dig
primeiraPalavraA=mass
primeiraPalavraA=nick
ultimaPalavraA=ache
ultimaPalavraA=jenif
ultimaPalavraA=fach
ultimaPalavraA=compreensa
ultimaPalavraA=maravil
primeiraPalavraA=pux
ultimaPalavraB=sociadad
ultimaPalavraB=igu
ultimaPalavraB=acham
ultimaPalavraA=tiag
primeiraPalavraA=gays
primeiraPalavraA=ces
ultimaPalavraB=amiga
ultimaPalavraA=henriqu
primeiraPalavraB=alg
primeiraPalavraA=part
primeiraPalavraA=è
primeiraPalavraA=singular
primeiraPalavraB=fanpag
ultimaPalavraA=oiiiee
primeiraPalavraA=8888
ultimaPalavraB=tiag
primeiraPalavraA=93
ultimaPalavraB=integr
ultimaPalavraA=eheheh
primeiraPalavraB=equip
ultimaPalavraA=rea
ultimaPalavraA=arvor
ultimaPalavraB=alter
ultimaPalavraA=pinturaemtec
ultimaPalavraA=cancel
primeiraPalavraA=dign
primeiraPalavraB=aih
ultimaPalavraA=trabalh
ultimaPalavraA=algu
ultimaPalavraA=retorn
primeiraPalavraA=cam
ultimaPalavraB=magn
primeiraPalavraA=timothy
primeiraPalavraB=senari
ultimaPalavraB=pes
primeiraPalavraA=novel
primeiraPalavraA=diet
ultimaPalavraB=acab
primeiraPalavraA=frent
ultimaPalavraA=tens
ultimaPalavraB=contat
primeiraPalavraA=nenhum
ultimaPalavraA=feliz
ultimaPalavraB=empreg
primeiraPalavraB=cenari
ultimaPalavraB=imc
ultimaPalavraA=crianc
primeiraPalavraB=mals
primeiraPalavraA=oieeee
ultimaPalavraB=abr
ultimaPalavraB=result
ultimaPalavraA=democrac
primeiraPalavraB=algum
primeiraPalavraB=aee
ultimaPalavraB=velh
primeiraPalavraA=convid
primeiraPalavraA=hoj
ultimaPalavraB=cust
primeiraPalavraA=genteeeeeeeeeee
ultimaPalavraB=obit
primeiraPalavraA=1
ultimaPalavraA=8888
primeiraPalavraA=predi
ultimaPalavraA=perfeit
ultimaPalavraB=lihs
primeiraPalavraA=consi
primeiraPalavraA=esper
primeiraPalavraB=parlament
ultimaPalavraB=merc
primeiraPalavraB=pô
ultimaPalavraA=estad
ultimaPalavraB=alan
ultimaPalavraA=estam
primeiraPalavraB=moviment
ultimaPalavraB=pobr
primeiraPalavraA=val
ultimaPalavraA=menin
primeiraPalavraB=clare
ultimaPalavraB=coraco
primeiraPalavraA=ellefort
primeiraPalavraB=uhull
ultimaPalavraB=pinturaemtec
primeiraPalavraA=sozinh
ultimaPalavraA=horari
ultimaPalavraB=2000
ultimaPalavraA=jah
ultimaPalavraA=infern
ultimaPalavraA=cristo
primeiraPalavraB=so
primeiraPalavraB=qr
ultimaPalavraB=sinal
ultimaPalavraB=encerr
ultimaPalavraB=apen
primeiraPalavraA=crista
ultimaPalavraB=add
ultimaPalavraB=ache
primeiraPalavraB=qdo
primeiraPalavraB=né
primeiraPalavraA=p
primeiraPalavraA=clare
ultimaPalavraA=deput
ultimaPalavraA=confer
primeiraPalavraA=medic
ultimaPalavraB=telinh
ultimaPalavraB=pesquis
primeiraPalavraB=ql
primeiraPalavraA=s
ultimaPalavraB=notic
ultimaPalavraB=divers
primeiraPalavraA=vej
ultimaPalavraB=pensament
primeiraPalavraB=pux
primeiraPalavraB=beij
primeiraPalavraA=consult
ultimaPalavraA=eua
primeiraPalavraB=lihs
ultimaPalavraA=arraz
ultimaPalavraA=dogmat
ultimaPalavraB=holand
mensagemATemNomeB=true
primeiraPalavraB=marc
ultimaPalavraA=eva
primeiraPalavraA=sempr
primeiraPalavraA=der
ultimaPalavraA=rua
ultimaPalavraA=ansiedad
ultimaPalavraB=dispon
ultimaPalavraB=victoz
primeiraPalavraB=consi
ultimaPalavraB=mid
ultimaPalavraA=exceca
ultimaPalavraB=aiiii
ultimaPalavraA=mandett
primeiraPalavraA=pastor
ultimaPalavraB=jesus
ultimaPalavraB=rapidim
ultimaPalavraA=parec
primeiraPalavraB=há
primeiraPalavraB=opaaaaa
primeiraPalavraA=luciaaaa
ultimaPalavraB=cheg
ultimaPalavraA=inferior
primeiraPalavraB=kd
ultimaPalavraB=patriciaa
ultimaPalavraB=visualiz
primeiraPalavraB=mand
primeiraPalavraA=simmmmm
ultimaPalavraA=doenc
ultimaPalavraA=absurd
primeiraPalavraA=mostr
ultimaPalavraB=asssit
primeiraPalavraA=med
primeiraPalavraA=anot
ultimaPalavraA=rapidim
primeiraPalavraB=hj
primeiraPalavraB=amiga
ultimaPalavraB=menin
primeiraPalavraB=debat
ultimaPalavraA=violin
ultimaPalavraA=contrab
primeiraPalavraA=evangel
ultimaPalavraA=comic
ultimaPalavraA=son
ultimaPalavraA=400
ultimaPalavraA=ksa
ultimaPalavraA=gal
primeiraPalavraA=signific
ultimaPalavraA=cheg
ultimaPalavraA=simmmmm
primeiraPalavraA=grand
primeiraPalavraA=opaaaaa
primeiraPalavraB=precis
primeiraPalavraB=seminari
ultimaPalavraA=amanh
primeiraPalavraA=reunia
ultimaPalavraB=dinov
primeiraPalavraA=logic
ultimaPalavraA=heteronormativ
primeiraPalavraB=frent
primeiraPalavraA=enfim
ultimaPalavraA=comec
ultimaPalavraA=facul
ultimaPalavraB=horari
primeiraPalavraB=hoj
ultimaPalavraA=sc
ultimaPalavraB=abrir
ultimaPalavraA=xseminariolgbt
primeiraPalavraB=consult
ultimaPalavraA=ta
ultimaPalavraB=fisic
primeiraPalavraB=crista
ultimaPalavraB=tempo
ultimaPalavraB=audienc
ultimaPalavraA=faculdad
ultimaPalavraA=asssit
primeiraPalavraA=falt
primeiraPalavraB=luciaaaa
ultimaPalavraA=cust
ultimaPalavraB=uol
ultimaPalavraB=noss
primeiraPalavraA=aplaus
ultimaPalavraB=diniz
ultimaPalavraA=sup
ultimaPalavraB=ofend
primeiraPalavraA=rapaz
primeiraPalavraB=carac
ultimaPalavraA=holand
ultimaPalavraB=noit
primeiraPalavraB=coloc
primeiraPalavraA=juridic
ultimaPalavraA=pedofil
ultimaPalavraA=trat
ultimaPalavraA=alema
ultimaPalavraB=ctg
primeiraPalavraB=heheh
primeiraPalavraB=brasil
ultimaPalavraA=respeit
ultimaPalavraA=dai
ultimaPalavraA=sit
primeiraPalavraA=lihs
ultimaPalavraB=algu
ultimaPalavraB=lut
primeiraPalavraB=verdadeir
ultimaPalavraA=iguatem
primeiraPalavraB=estav
primeiraPalavraA=seman
primeiraPalavraA=elci
ultimaPalavraA=ningu
primeiraPalavraA=casament
ultimaPalavraA=luciaaaa
ultimaPalavraA=abrir
primeiraPalavraB=rod
primeiraPalavraA=qto
ultimaPalavraA=dispon
primeiraPalavraA=msn
ultimaPalavraA=2222
primeiraPalavraA=eua
ultimaPalavraA=zumb
ultimaPalavraA=portal
primeiraPalavraB=timothy
ultimaPalavraA=babac
ultimaPalavraA=flav
primeiraPalavraB=patriciaa
ultimaPalavraA=configur
primeiraPalavraB=codig
ultimaPalavraB=faculdad
ultimaPalavraA=fod
ultimaPalavraB=predominant
ultimaPalavraA=famil
ultimaPalavraB=especial
ultimaPalavraA=sedent
ultimaPalavraA=stefanny
ultimaPalavraA=velh
ultimaPalavraA=vicios
ultimaPalavraB=valor
primeiraPalavraB=diog
ultimaPalavraB=oieee
ultimaPalavraA=daqu
ultimaPalavraB=filial
ultimaPalavraA=aí
ultimaPalavraA=chup
ultimaPalavraA=present
primeiraPalavraB=aguard
ultimaPalavraB=palestrant
primeiraPalavraB=amanh
primeiraPalavraB=oieee
ultimaPalavraB=consult
ultimaPalavraB=retorn
ultimaPalavraA=vend
primeiraPalavraB=reunia
ultimaPalavraB=heauheu
ultimaPalavraB=pessoal
primeiraPalavraA=krak
ultimaPalavraA=hj
ultimaPalavraB=rea
ultimaPalavraB=vem
ultimaPalavraA=flavi
primeiraPalavraB=discussa
primeiraPalavraA=bel
primeiraPalavraA=rod
ultimaPalavraA=vlw
ultimaPalavraA=bh
ultimaPalavraA=comun
ultimaPalavraB=direca
primeiraPalavraB=krak
primeiraPalavraA=patriciaa
primeiraPalavraB=horari
primeiraPalavraB=temp
ultimaPalavraA=ai
ultimaPalavraA=pens
ultimaPalavraA=fui
primeiraPalavraB=ver
ultimaPalavraA=ter
ultimaPalavraA=tem
primeiraPalavraB=engrac
primeiraPalavraA=chegu
ultimaPalavraA=ed
ultimaPalavraA=vot
primeiraPalavraB=hahahahahahahhahah
ultimaPalavraA=hahah
ultimaPalavraA=reconhec
ultimaPalavraB=anterior
ultimaPalavraA=ouv
ultimaPalavraB=tratament
ultimaPalavraA=ahhh
ultimaPalavraB=alema
ultimaPalavraB=c
ultimaPalavraA=gtalk
ultimaPalavraB=bjoo
ultimaPalavraB=dev
primeiraPalavraB=gays
ultimaPalavraB=q
primeiraPalavraA=livr
ultimaPalavraA=liberdad
ultimaPalavraA=visualiz
ultimaPalavraB=v
primeiraPalavraA=email
ultimaPalavraA=apen
ultimaPalavraA=nd
primeiraPalavraA=preambul
ultimaPalavraB=divulgad
ultimaPalavraA=já
primeiraPalavraA=revid
primeiraPalavraA=igu
primeiraPalavraB=esclarec
primeiraPalavraA=question
ultimaPalavraA=concret
primeiraPalavraA=faelaa
ultimaPalavraA=suficient
ultimaPalavraA=adelin
ultimaPalavraB=arrepi
primeiraPalavraA=divorci
ultimaPalavraB=heuauheu
primeiraPalavraB=vir
ultimaPalavraB=1
ultimaPalavraA=merc
ultimaPalavraB=dabm
ultimaPalavraA=represent
primeiraPalavraB=diet
ultimaPalavraA=pq
ultimaPalavraA=sinal
ultimaPalavraA=homossexu
ultimaPalavraB=comec
ultimaPalavraB=particul
primeiraPalavraA=uia
ultimaPalavraA=oieeee
ultimaPalavraB=present
primeiraPalavraA=amiga
ultimaPalavraB=abrac
primeiraPalavraA=cris
ultimaPalavraA=russ
ultimaPalavraA=noit
primeiraPalavraA=deix
primeiraPalavraB=liber
primeiraPalavraB=exempl
primeiraPalavraB=hahah
ultimaPalavraA=mg
ultimaPalavraA=arbitri
primeiraPalavraB=bjos
ultimaPalavraB=adot
primeiraPalavraB=bjoo
ultimaPalavraB=apetit
ultimaPalavraA=contribuica
ultimaPalavraA=ctg
ultimaPalavraB=injust
ultimaPalavraA=plenario3
ultimaPalavraB=concord
ultimaPalavraA=lug
ultimaPalavraB=usuario1
ultimaPalavraB=carl
ultimaPalavraA=dabm
ultimaPalavraA=arrepi
ultimaPalavraA=propagand
primeiraPalavraB=son
primeiraPalavraA=finamentem
ultimaPalavraB=ta
primeiraPalavraA=pronunc
ultimaPalavraB=contrab
ultimaPalavraB=offic
ultimaPalavraA=baix
ultimaPalavraA=deus
ultimaPalavraA=portugu
ultimaPalavraA=tvcam
ultimaPalavraB=prejudic
ultimaPalavraB=sc
ultimaPalavraB=torc
ultimaPalavraA=anfetamin
ultimaPalavraA=noss
ultimaPalavraB=esquerd
ultimaPalavraA=artist
primeiraPalavraB=prii
primeiraPalavraB=consig
ultimaPalavraB=hahah
primeiraPalavraA=sar
ultimaPalavraB=ordem
primeiraPalavraB=consider
ultimaPalavraA=tetral
ultimaPalavraB=recomec
ultimaPalavraA=tsc
ultimaPalavraB=umbad
ultimaPalavraB=merec
ultimaPalavraA=alter
ultimaPalavraA=process
ultimaPalavraA=professor
ultimaPalavraA=compatibil
ultimaPalavraA=singular
ultimaPalavraA=reunio
primeiraPalavraB=urgent
ultimaPalavraA=safar
ultimaPalavraA=privilegi
primeiraPalavraB=aparec
primeiraPalavraA=adelin
ultimaPalavraB=boi
primeiraPalavraA=exelent
ultimaPalavraA=desej
primeiraPalavraA=rua
ultimaPalavraB=termin
primeiraPalavraB=monitor
ultimaPalavraB=ric
ultimaPalavraB=professional
primeiraPalavraA=magrinh
primeiraPalavraA=putz
primeiraPalavraB=exelent
primeiraPalavraA=arrisc
primeiraPalavraA=constituica
ultimaPalavraB=gerenciamaterialargentinaesesmelieglpservice
ultimaPalavraB=ksa
ultimaPalavraB=plenario3
ultimaPalavraA=hoj
ultimaPalavraA=hom
primeiraPalavraA=tamb
ultimaPalavraA=enorm
primeiraPalavraB=sibutramin
ultimaPalavraB=adelin
primeiraPalavraA=fanpag
primeiraPalavraB=retir
primeiraPalavraA=carac
primeiraPalavraA=consider
ultimaPalavraA=victoz
ultimaPalavraA=belez
ultimaPalavraA=divers
ultimaPalavraA=pleas
ultimaPalavraB=quimic
ultimaPalavraA=anos
primeiraPalavraA=aparec
ultimaPalavraA=result
ultimaPalavraA=normat
primeiraPalavraB=aquel
ultimaPalavraA=normal
ultimaPalavraA=magn
ultimaPalavraA=irrespons
ultimaPalavraA=tir
ultimaPalavraA=cam
ultimaPalavraA=cal
ultimaPalavraB=professor
ultimaPalavraB=só
ultimaPalavraA=terrivel
ultimaPalavraB=epoc
ultimaPalavraB=exceca
ultimaPalavraA=senari
ultimaPalavraA=jesus
ultimaPalavraB=400
ultimaPalavraB=projet
primeiraPalavraA=pô
ultimaPalavraA=c
primeiraPalavraA=son
ultimaPalavraB=f5
primeiraPalavraA=maior
ultimaPalavraA=q
ultimaPalavraA=y
ultimaPalavraB=ed
primeiraPalavraA=aee
ultimaPalavraB=privilegi
primeiraPalavraB=pastor
primeiraPalavraA=hadad
primeiraPalavraA=te
ultimaPalavraA=ordem
primeiraPalavraA=probabil
primeiraPalavraB=papinh
ultimaPalavraA=especial
ultimaPalavraA=real
primeiraPalavraB=15
primeiraPalavraB=oieeee
ultimaPalavraA=faelaa
ultimaPalavraB=sen
primeiraPalavraB=eeeeeeeeeeeee
primeiraPalavraA=qualific
ultimaPalavraA=guerr
ultimaPalavraA=pux
ultimaPalavraB=2222
ultimaPalavraB=normal
ultimaPalavraB=segur
primeiraPalavraA=perdo
ultimaPalavraB=tetral
primeiraPalavraB=car
primeiraPalavraB=nenhum
ultimaPalavraB=almoc
primeiraPalavraA=aih
ultimaPalavraA=bet
ultimaPalavraB=ai
ultimaPalavraB=ced
primeiraPalavraA=eeeeeeeeeeeee
primeiraPalavraA=audienc
primeiraPalavraA=repass
ultimaPalavraB=sit
ultimaPalavraB=enorm
ultimaPalavraA=futur
ultimaPalavraA=quimic
primeiraPalavraB=email
ultimaPalavraA=lihs
primeiraPalavraA=ma
primeiraPalavraA=oiiiee
ultimaPalavraB=contribuica
primeiraPalavraB=ces
primeiraPalavraA=hahahahahahahhahah
ultimaPalavraB=mongol
primeiraPalavraA=tecnic
ultimaPalavraB=trist
ultimaPalavraA=carl
ultimaPalavraB=tvcam
primeiraPalavraA=procur
ultimaPalavraA=haahahaah
ultimaPalavraA=pobr
ultimaPalavraB=nd
ultimaPalavraB=já
ultimaPalavraB=kkkkkkk
primeiraPalavraA=há
ultimaPalavraA=amiga
ultimaPalavraB=brail
primeiraPalavraA=ahhh
primeiraPalavraA=dois
primeiraPalavraA=belez
ultimaPalavraA=apetit
ultimaPalavraA=lerd
primeiraPalavraA=alg
primeiraPalavraA=ali
ultimaPalavraA=bug
ultimaPalavraB=congress
ultimaPalavraB=faelaa
ultimaPalavraA=eeeeeeeeeeeee
ultimaPalavraB=stalin
ultimaPalavraA=heuauheu
primeiraPalavraA=rosangel
ultimaPalavraA=bjoo
ultimaPalavraA=datainici
primeiraPalavraA=beij
ultimaPalavraB=histor
ultimaPalavraA=gordinh
ultimaPalavraB=oieeee
ultimaPalavraA=acham
ultimaPalavraA=prestenca
primeiraPalavraB=sar
ultimaPalavraA=homossexual
ultimaPalavraA=glob
ultimaPalavraB=esquec
ultimaPalavraA=aplaus
primeiraPalavraB=resum
primeiraPalavraA=so
primeiraPalavraA=fiz
ultimaPalavraA=event
primeiraPalavraA=estrahnh
primeiraPalavraB=estrahnh
primeiraPalavraB=heuaheua.fala
primeiraPalavraA=quantidad
ultimaPalavraB=transmissa
ultimaPalavraB=pais
ultimaPalavraA=inici
ultimaPalavraB=mandett
primeiraPalavraA=né
primeiraPalavraB=decisa
ultimaPalavraA=zap
primeiraPalavraB=march
ultimaPalavraA=bot
ultimaPalavraB=hj
ultimaPalavraA=boi
primeiraPalavraB=prov
primeiraPalavraA=qr
ultimaPalavraB=parcipat
ultimaPalavraB=sup
ultimaPalavraB=aguent
primeiraPalavraA=aí
ultimaPalavraA=holond
primeiraPalavraB=problem
primeiraPalavraA=ei
ultimaPalavraB=bomb
primeiraPalavraA=uhull
ultimaPalavraB=eua
ultimaPalavraA=nenhum
primeiraPalavraA=aguard
ultimaPalavraA=esquec
primeiraPalavraA=horari
primeiraPalavraA=rssss
primeiraPalavraB=tsc
ultimaPalavraB=sedent
ultimaPalavraA=algum
ultimaPalavraB=artist
ultimaPalavraA=question
ultimaPalavraB=facul
ultimaPalavraA=afaz
ultimaPalavraB=homofob
ultimaPalavraB=escol
ultimaPalavraA=sociedad
primeiraPalavraA=ond
primeiraPalavraA=tah
ultimaPalavraB=anos
ultimaPalavraB=experiente
ultimaPalavraB=eva
primeiraPalavraA=pequen
ultimaPalavraA=discussa
primeiraPalavraA=pesso
ultimaPalavraB=ignor
numeroMsgsEntreAeB=11
ultimaPalavraA=banguel
ultimaPalavraA=coraco
ultimaPalavraA=oieee
primeiraPalavraA=leg
primeiraPalavraB=poo
primeiraPalavraA=icar
numeroMsgsEntreAeB=14
numeroMsgsEntreAeB=13
numeroMsgsEntreAeB=12
numeroMsgsEntreAeB=19
primeiraPalavraA=codig
primeiraPalavraA=kkkkkkk
numeroMsgsEntreAeB=18
numeroMsgsEntreAeB=17
numeroMsgsEntreAeB=16
numeroMsgsEntreAeB=20
numeroMsgsEntreAeB=21
ultimaPalavraB=lerd
primeiraPalavraB=ei
primeiraPalavraB=tom
primeiraPalavraA=kd
primeiraPalavraB=aí
ultimaPalavraB=err
ultimaPalavraA=disponibiliz
ultimaPalavraB=portal
ultimaPalavraA=diminut
primeiraPalavraB=convid
primeiraPalavraA=dá
ultimaPalavraB=segund
primeiraPalavraA=hj
primeiraPalavraB=recif
primeiraPalavraA=tel
ultimaPalavraA=relevant
primeiraPalavraA=ter
primeiraPalavraB=dá
ultimaPalavraA=notic
primeiraPalavraA=engrac
primeiraPalavraA=sibutramin
ultimaPalavraB=reunio
ultimaPalavraB=perfeitoooooooooooo
ultimaPalavraA=bussiness
ultimaPalavraB=aki
ultimaPalavraB=infern
ultimaPalavraA=ignor
ultimaPalavraA=sociadad
ultimaPalavraB=question
ultimaPalavraA=calun
primeiraPalavraA=coloc
ultimaPalavraB=alg
ultimaPalavraB=homossexu
primeiraPalavraB=desist
ultimaPalavraB=alm
ultimaPalavraB=calun
ultimaPalavraA=transmissa
ultimaPalavraA=professional
ultimaPalavraB=anfetamin
primeiraPalavraA=proibica
ultimaPalavraA=segund
ultimaPalavraA=crenc
primeiraPalavraB=excelent
primeiraPalavraA=heheh
ultimaPalavraB=ano
primeiraPalavraA=oieee
ultimaPalavraA=encerr
ultimaPalavraB=crenc
ultimaPalavraA=concord
ultimaPalavraB=haahahaah
ultimaPalavraA=arcaic
ultimaPalavraA=religi
primeiraPalavraA=kkkkkkkk
ultimaPalavraB=eeeeeeeeeeeee
ultimaPalavraA=imc
primeiraPalavraA=transmissa
primeiraPalavraA=camp
primeiraPalavraB=religia
primeiraPalavraA=recif
ultimaPalavraA=prejudic
ultimaPalavraA=mne
primeiraPalavraA=bh
primeiraPalavraB=per
ultimaPalavraB=son
ultimaPalavraB=grac
primeiraPalavraA=hheheh
ultimaPalavraA=kkkkkk
ultimaPalavraA=stalin
ultimaPalavraA=tratament
ultimaPalavraB=firefox
primeiraPalavraA=debor
ultimaPalavraA=perfeitoooooooooooo
primeiraPalavraB=ignoranc
ultimaPalavraA=gerenciamaterialargentinaesesmelieglpservice
ultimaPalavraA=golp
ultimaPalavraA=brail
ultimaPalavraA=vaness
ultimaPalavraA=kkkkkkk
ultimaPalavraA=fisic
primeiraPalavraA=tsc
ultimaPalavraA=palestrant
ultimaPalavraB=daqu
ultimaPalavraB=fez
ultimaPalavraB=bet
primeiraPalavraA=cenari
ultimaPalavraA=python
ultimaPalavraB=527
ultimaPalavraA=constitucional
ultimaPalavraB=algum
primeiraPalavraA=discurs
ultimaPalavraB=perfeit
ultimaPalavraA=fundamental
ultimaPalavraB=famil
ultimaPalavraB=compreensa
ultimaPalavraB=suficient
ultimaPalavraA=telinh
ultimaPalavraB=safar
ultimaPalavraB=vaness
primeiraPalavraB=tah
primeiraPalavraB=seman
ultimaPalavraA=preconceit
ultimaPalavraB=cognit
ultimaPalavraA=casament
primeiraPalavraA=equip
primeiraPalavraA=bjos
primeiraPalavraA=bjoo
ultimaPalavraA=steni
primeiraPalavraB=pont
primeiraPalavraB=dois
ultimaPalavraA=mes
primeiraPalavraA=laicidad
primeiraPalavraA=consig
primeiraPalavraA=camil
ultimaPalavraB=bbb
ultimaPalavraA=agradec
ultimaPalavraA=ajud
ultimaPalavraB=deus
primeiraPalavraB=casament
ultimaPalavraA=vem
primeiraPalavraA=hilb
ultimaPalavraA=veu
primeiraPalavraA=problem
ultimaPalavraB=internacional
ultimaPalavraB=inici
primeiraPalavraB=repass
ultimaPalavraA=parcipat
primeiraPalavraB=abrac
primeiraPalavraA=hahah
ultimaPalavraA=sord
ultimaPalavraA=timothy
primeiraPalavraA=per
ultimaPalavraA=valor
primeiraPalavraB=maravilh
primeiraPalavraA=depend
ultimaPalavraA=ach
primeiraPalavraB=kkkkkkk
ultimaPalavraA=rar
ultimaPalavraA=patriciaa
ultimaPalavraB=aplaus
primeiraPalavraB=anot
ultimaPalavraA=esquerd
ultimaPalavraB=gtalk
primeiraPalavraA=flav
primeiraPalavraA=kelly
primeiraPalavraA=mund
ultimaPalavraA=heauheu
ultimaPalavraA=vag
ultimaPalavraA=trolls.rsrsr
ultimaPalavraB=defas
ultimaPalavraA=termin
primeiraPalavraB=è
ultimaPalavraB=fod
ultimaPalavraA=obit
ultimaPalavraA=camil
primeiraPalavraA=monitor
primeiraPalavraA=ningu
primeiraPalavraA=heuaheua.fala
ultimaPalavraA=rsss
primeiraPalavraB=1
primeiraPalavraA=brasil
primeiraPalavraB=bel
primeiraPalavraA=tom
primeiraPalavraA=desist
ultimaPalavraA=histor
ultimaPalavraA=respir
primeiraPalavraA=edson
primeiraPalavraA=amig
ultimaPalavraB=80
primeiraPalavraA=poo
primeiraPalavraA=certissim
ultimaPalavraB=python
primeiraPalavraB=tel
ultimaPalavraA=usuario1
ultimaPalavraA=alg
ultimaPalavraA=ali
ultimaPalavraB=impost
ultimaPalavraA=degradant
primeiraPalavraB=probabil
primeiraPalavraB=p
ultimaPalavraA=deist
ultimaPalavraA=aki
primeiraPalavraB=perdo
primeiraPalavraA=preconceit
primeiraPalavraB=pronunc
primeiraPalavraA=forc
primeiraPalavraB=eua
primeiraPalavraA=15
primeiraPalavraA=diss
ultimaPalavraB=mot
primeiraPalavraA=vlw
primeiraPalavraA=gordinh
ultimaPalavraA=certez
ultimaPalavraB=soluca
ultimaPalavraB=cenari
ultimaPalavraB=heteronormativ
primeiraPalavraB=ihhh
ultimaPalavraA=tamb
ultimaPalavraA=rol
primeiraPalavraA=26
ultimaPalavraB=inapropri
primeiraPalavraA=30
ultimaPalavraA=rod
primeiraPalavraA=mals
primeiraPalavraA=claudet
ultimaPalavraB=psc
ultimaPalavraB=ruim
ultimaPalavraA=internacional
primeiraPalavraB=gost
primeiraPalavraA=mama
ultimaPalavraB=poss
ultimaPalavraB=marginal
primeiraPalavraA=abrac
ultimaPalavraB=inat
primeiraPalavraA=poss
primeiraPalavraA=ihhh
primeiraPalavraA=deput
ultimaPalavraA=fisioterap
ultimaPalavraB=evangel
primeiraPalavraB=mud
primeiraPalavraA=vot
primeiraPalavraB=asa
primeiraPalavraA=vou
ultimaPalavraA=edot
primeiraPalavraB=est
primeiraPalavraA=escol
primeiraPalavraB=medic
primeiraPalavraB=mto
primeiraPalavraB=trolls
primeiraPalavraA=victoz
primeiraPalavraA=voc
ultimaPalavraA=faz
primeiraPalavraA=vide
ultimaPalavraA=sexual
primeiraPalavraA=igualdad
ultimaPalavraA=roup
primeiraPalavraA=lip
primeiraPalavraA=especial
primeiraPalavraB=aqu
primeiraPalavraA=pont
primeiraPalavraB=revid
ultimaPalavraA=agend
ultimaPalavraB=msn
ultimaPalavraB=msm
primeiraPalavraA=pens
ultimaPalavraB=confer
primeiraPalavraB=flav
ultimaPalavraB=pouc
ultimaPalavraA=rss
ultimaPalavraA=conceit
ultimaPalavraB=suspens
ultimaPalavraA=henr
primeiraPalavraB=singular
ultimaPalavraA=fal
primeiraPalavraA=jandira
primeiraPalavraB=corrig
ultimaPalavraB=debat
ultimaPalavraA=exist
ultimaPalavraA=pergunt
ultimaPalavraB=dogmat
ultimaPalavraA=usand
primeiraPalavraA=consegu
ultimaPalavraA=audi
ultimaPalavraB=arbitri
primeiraPalavraB=pass
ultimaPalavraB=propri
ultimaPalavraA=verific
ultimaPalavraB=pod
primeiraPalavraA=respond
primeiraPalavraA=capelett
ultimaPalavraA=leeeentaa
primeiraPalavraA=minh
ultimaPalavraB=pov
ultimaPalavraB=deix
ultimaPalavraA=nad
ultimaPalavraB=tecnic
primeiraPalavraA=maneir
ultimaPalavraB=simmmmm
ultimaPalavraB=melhor
primeiraPalavraA=ministeri
ultimaPalavraB=juiz
ultimaPalavraB=propagand
primeiraPalavraA=prest
ultimaPalavraA=daniel
primeiraPalavraB=ire
ultimaPalavraA=huun
ultimaPalavraB=dificil
ultimaPalavraB=confeit
primeiraPalavraA=comissa
primeiraPalavraB=audienc
primeiraPalavraB=rosangel
primeiraPalavraB=julian
ultimaPalavraA=alien
ultimaPalavraA=envolv
primeiraPalavraA=favor
primeiraPalavraA=urgent
ultimaPalavraA=transmit
primeiraPalavraB=soment
ultimaPalavraA=lapel
ultimaPalavraA=brasileir
ultimaPalavraA=ness
primeiraPalavraB=classific
ultimaPalavraA=imagin
ultimaPalavraA=fez
ultimaPalavraA=supres
primeiraPalavraA=papinh
ultimaPalavraA=contat
ultimaPalavraB=list
ultimaPalavraA=divulgad
primeiraPalavraB=laicidad
ultimaPalavraB=simbol
ultimaPalavraB=supres
primeiraPalavraA=realment
primeiraPalavraA=ó
ultimaPalavraB=totalitari
primeiraPalavraB=compr
ultimaPalavraB=chup
primeiraPalavraB=ali
ultimaPalavraA=neh
ultimaPalavraA=perd
ultimaPalavraA=neg
ultimaPalavraA=acess
primeiraPalavraB=flor
ultimaPalavraB=particip
ultimaPalavraB=brasileir
primeiraPalavraB=yep
primeiraPalavraA=é
ultimaPalavraA=dizim
primeiraPalavraA=jacob
ultimaPalavraA=federal
primeiraPalavraA=cabec
ultimaPalavraA=vide
primeiraPalavraB=sempr
ultimaPalavraA=hipocris
primeiraPalavraA=hum
primeiraPalavraB=mund
ultimaPalavraB=maravil
ultimaPalavraA=trabai
ultimaPalavraB=duv
ultimaPalavraB=domicili
primeiraPalavraA=pass
primeiraPalavraB=isonom
ultimaPalavraA=red
ultimaPalavraB=peg
ultimaPalavraB=funcion
ultimaPalavraA=burric
primeiraPalavraB=aham
ultimaPalavraB=diss
ultimaPalavraB=pen
ultimaPalavraB=arcaic
ultimaPalavraA=turm
primeiraPalavraA=inform
primeiraPalavraB=particip
ultimaPalavraB=discussa
ultimaPalavraB=disc
ultimaPalavraA=keep
primeiraPalavraB=noss
ultimaPalavraB=datainici
ultimaPalavraB=russ
primeiraPalavraB=igu
ultimaPalavraA=fiz
primeiraPalavraA=cas
primeiraPalavraA=heheheheh
primeiraPalavraA=car
ultimaPalavraA=integr
ultimaPalavraB=hahahahah
ultimaPalavraB=marci
primeiraPalavraA=cal
primeiraPalavraA=cad
ultimaPalavraA=fig
ultimaPalavraB=relacion
ultimaPalavraB=preguicinh
ultimaPalavraB=heheheheh
ultimaPalavraA=rir
ultimaPalavraA=flr
primeiraPalavraB=ué
primeiraPalavraA=dps
ultimaPalavraB=estam
primeiraPalavraB=lembr
primeiraPalavraB=diss
primeiraPalavraA=pri
ultimaPalavraB=estad
ultimaPalavraA=harrison
primeiraPalavraA=perceb
primeiraPalavraA=encher
ultimaPalavraB=daniel
primeiraPalavraB=rapaz
ultimaPalavraB=fisioterap
primeiraPalavraB=quis
ultimaPalavraA=erros
ultimaPalavraA=ric
ultimaPalavraA=parabensssssssssss
primeiraPalavraB=gent
ultimaPalavraB=mail
primeiraPalavraB=simbol
ultimaPalavraA=sab
primeiraPalavraB=deput
primeiraPalavraB=tá
ultimaPalavraB=kelly
ultimaPalavraA=inibidor
ultimaPalavraB=aprad
primeiraPalavraB=só
ultimaPalavraB=absurd
ultimaPalavraB=problemat
ultimaPalavraB=parabens
primeiraPalavraB=predi
ultimaPalavraA=lgbt
ultimaPalavraB=yep
primeiraPalavraA=hor
mensagemBTemNomeA=true
primeiraPalavraA=2
primeiraPalavraA=3
ultimaPalavraA=inaceit
ultimaPalavraA=nov
primeiraPalavraA=kkkk
ultimaPalavraB=compatibil
ultimaPalavraA=diz
ultimaPalavraB=debug
ultimaPalavraA=nom
ultimaPalavraA=dit
ultimaPalavraA=sal
primeiraPalavraB=mama
ultimaPalavraB=gost
ultimaPalavraA=sap
primeiraPalavraB=ministeri
ultimaPalavraA=sao
ultimaPalavraA=priorit
primeiraPalavraB=vc
primeiraPalavraA=claud
ultimaPalavraB=ongs
ultimaPalavraB=esper
primeiraPalavraB=edson
ultimaPalavraA=cardiovascul
primeiraPalavraB=8888
ultimaPalavraB=motiv
ultimaPalavraA=jeann
primeiraPalavraB=abr
ultimaPalavraB=mat
primeiraPalavraB=vo
ultimaPalavraB=20h
primeiraPalavraB=daniel
primeiraPalavraB=vi
primeiraPalavraA=trolls
ultimaPalavraB=naveg
ultimaPalavraB=vend
ultimaPalavraB=venc
primeiraPalavraB=diferenc
primeiraPalavraB=ach
primeiraPalavraB=tecnic
ultimaPalavraB=recif
primeiraPalavraB=tu
ultimaPalavraB=mal
primeiraPalavraA=mar
primeiraPalavraB=amig
primeiraPalavraB=eba
ultimaPalavraA=agor
ultimaPalavraB=explor
primeiraPalavraB=simpl
primeiraPalavraA=vai
primeiraPalavraB=ernan
primeiraPalavraB=livr
ultimaPalavraA=islam
primeiraPalavraB=tb
primeiraPalavraB=ta
ultimaPalavraA=sei
primeiraPalavraB=td
primeiraPalavraB=te
ultimaPalavraA=chrom
primeiraPalavraB=to
ultimaPalavraB=gordinh
primeiraPalavraB=rs
primeiraPalavraB=toleranc
ultimaPalavraB=timothy
ultimaPalavraB=obes
ultimaPalavraA=taaard
ultimaPalavraB=constitucional
ultimaPalavraA=film
ultimaPalavraA=sen
ultimaPalavraA=sep
numeroMsgsEntreAeB=9
ultimaPalavraB=relevant
ultimaPalavraA=filh
ultimaPalavraA=ser
numeroMsgsEntreAeB=7
numeroMsgsEntreAeB=8
primeiraPalavraB=complet
numeroMsgsEntreAeB=5
numeroMsgsEntreAeB=6
primeiraPalavraB=iran
ultimaPalavraB=resolv
numeroMsgsEntreAeB=3
numeroMsgsEntreAeB=4
numeroMsgsEntreAeB=1
numeroMsgsEntreAeB=2
ultimaPalavraA=crista
numeroMsgsEntreAeB=0
primeiraPalavraB=jean
ultimaPalavraA=ongs
ultimaPalavraB=atras
ultimaPalavraA=gent
primeiraPalavraB=exist
primeiraPalavraB=vide
primeiraPalavraA=diret
primeiraPalavraA=inconstitucional
primeiraPalavraB=ahhh
primeiraPalavraB=huun
ultimaPalavraB=hahhahhaah
ultimaPalavraB=criminal
primeiraPalavraB=talvez
ultimaPalavraA=rsrsrsrs
ultimaPalavraA=esper
primeiraPalavraB=transmissa
ultimaPalavraB=medicin
ultimaPalavraB=stefanny
ultimaPalavraA=material
primeiraPalavraA=hib
ultimaPalavraB=mes
primeiraPalavraB=president
ultimaPalavraB=meu
ultimaPalavraB=serpr
primeiraPalavraA=n
primeiraPalavraA=q
ultimaPalavraB=feliz
primeiraPalavraA=huaheu
primeiraPalavraB=pr
primeiraPalavraA=gent
primeiraPalavraB=maior
primeiraPalavraB=magn
primeiraPalavraB=pq
ultimaPalavraB=ach
primeiraPalavraB=po
ultimaPalavraB=med
ultimaPalavraB=prestenca
primeiraPalavraA=estad
primeiraPalavraA=c
primeiraPalavraA=d
ultimaPalavraB=lind
ultimaPalavraA=err
ultimaPalavraA=resolv
primeiraPalavraA=estav
ultimaPalavraA=confeit
ultimaPalavraB=exist
ultimaPalavraB=link
primeiraPalavraA=vao
primeiraPalavraA=vam
primeiraPalavraA=estam
ultimaPalavraA=latim
ultimaPalavraA=etc
primeiraPalavraA=chat
ultimaPalavraA=exercici
ultimaPalavraA=corret
ultimaPalavraB=golp
primeiraPalavraA=cham
ultimaPalavraA=servic
ultimaPalavraA=diabet
primeiraPalavraB=lá
ultimaPalavraB=just
primeiraPalavraA=natanael
ultimaPalavraA=pass
ultimaPalavraA=parceir
primeiraPalavraB=seri
ultimaPalavraB=cham
primeiraPalavraB=oq
primeiraPalavraA=vei
mensagemBTemNomeA=false
primeiraPalavraA=vcs
primeiraPalavraB=claud
primeiraPalavraB=oi
primeiraPalavraB=ok
ultimaPalavraA=receb
ultimaPalavraB=estou
ultimaPalavraA=logic
ultimaPalavraB=belez
ultimaPalavraA=totalitari
primeiraPalavraB=ufa
ultimaPalavraA=part
primeiraPalavraA=clar
primeiraPalavraB=serginh
primeiraPalavraA=recom
primeiraPalavraB=no
ultimaPalavraB=ness
primeiraPalavraB=comissa
ultimaPalavraB=deist
ultimaPalavraB=preconceitu
primeiraPalavraA=direit
ultimaPalavraA=rum
primeiraPalavraA=kellypats
primeiraPalavraB=já
primeiraPalavraB=nd
primeiraPalavraB=uia
primeiraPalavraB=jesus
ultimaPalavraB=maior
ultimaPalavraB=public
primeiraPalavraA=dev
primeiraPalavraA=deu
ultimaPalavraA=jacob
primeiraPalavraB=mt
ultimaPalavraB=totalitar
primeiraPalavraA=verdad
ultimaPalavraA=jean
primeiraPalavraA=cade
primeiraPalavraA=ver
primeiraPalavraB=mi
ultimaPalavraB=encontr
primeiraPalavraB=me
primeiraPalavraB=fernand
primeiraPalavraA=vez
primeiraPalavraB=ma
ultimaPalavraB=discurs
ultimaPalavraA=funcion
ultimaPalavraB=escapator
ultimaPalavraB=parceir
ultimaPalavraA=judicial
primeiraPalavraB=nom
ultimaPalavraB=heter
ultimaPalavraB=mim
primeiraPalavraB=mass
ultimaPalavraB=discusa
ultimaPalavraB=conceit
ultimaPalavraB=barban
ultimaPalavraB=mit
ultimaPalavraA=heheheheh
ultimaPalavraA=pared
ultimaPalavraB=persegu
primeiraPalavraB=eit
primeiraPalavraA=particip
ultimaPalavraA=hahhahhaah
primeiraPalavraA=julian
ultimaPalavraA=diniz
ultimaPalavraB=pont
primeiraPalavraA=vir
ultimaPalavraA=aureli
ultimaPalavraA=assin
primeiraPalavraB=oper
primeiraPalavraB=link
primeiraPalavraA=poem
ultimaPalavraB=divorci
ultimaPalavraB=o.o
primeiraPalavraB=lind
ultimaPalavraA=propri
ultimaPalavraA=recif
ultimaPalavraB=pux
primeiraPalavraA=entend
ultimaPalavraB=explic
ultimaPalavraA=comisso
ultimaPalavraB=junt
ultimaPalavraB=claud
primeiraPalavraA=relevanc
primeiraPalavraB=lend
primeiraPalavraB=trabalh
primeiraPalavraA=seri
ultimaPalavraA=tard
ultimaPalavraA=heter
ultimaPalavraA=negr
ultimaPalavraB=aparec
ultimaPalavraA=duv
ultimaPalavraB=mne
primeiraPalavraA=dai
primeiraPalavraA=amanh
primeiraPalavraA=caramb
primeiraPalavraA=discussa
primeiraPalavraB=ja
ultimaPalavraB=volt
primeiraPalavraB=quantidad
primeiraPalavraA=vend
ultimaPalavraA=emocion
primeiraPalavraA=vinici
primeiraPalavraB=ih
ultimaPalavraA=fernand
primeiraPalavraA=venh
primeiraPalavraA=qdo
ultimaPalavraB=estranh
ultimaPalavraB=hotmail.com
primeiraPalavraA=viu
ultimaPalavraB=agor
ultimaPalavraB=plugin
ultimaPalavraA=capelett
primeiraPalavraA=meu
ultimaPalavraA=nazist
ultimaPalavraA=hahahahahahahahahahahahah
ultimaPalavraA=isonom
ultimaPalavraB=isonom
primeiraPalavraA=maravilh
primeiraPalavraB=amer
primeiraPalavraB=brig
ultimaPalavraB=receb
ultimaPalavraB=mmo
primeiraPalavraA=fernand
ultimaPalavraA=gay
ultimaPalavraB=igualdad
ultimaPalavraB=reclam
primeiraPalavraB=inform
ultimaPalavraA=vc
primeiraPalavraB=caramb
ultimaPalavraB=namor
primeiraPalavraB=dps
ultimaPalavraB=hom
primeiraPalavraA=acertadissim
ultimaPalavraB=hoj
ultimaPalavraA=som
primeiraPalavraA=esclarec
primeiraPalavraB=prest
primeiraPalavraA=corag
primeiraPalavraA=incomod
ultimaPalavraB=alici
ultimaPalavraB=inibidor
ultimaPalavraB=estud
ultimaPalavraB=hor
ultimaPalavraA=só
ultimaPalavraA=xd
primeiraPalavraB=gmail.com
ultimaPalavraB=convers
primeiraPalavraA=nunc
primeiraPalavraA=mor
primeiraPalavraB=curt
primeiraPalavraB=perceb
ultimaPalavraB=enrol
primeiraPalavraB=respond
primeiraPalavraA=pendur
ultimaPalavraA=obrig
ultimaPalavraA=entrar
ultimaPalavraB=gmail.com
ultimaPalavraB=proteca
ultimaPalavraA=perig
ultimaPalavraA=suspens
ultimaPalavraB=dizim
primeiraPalavraA=rsrsrsss
ultimaPalavraB=jandira
ultimaPalavraB=sozinh
ultimaPalavraB=alien
ultimaPalavraA=anvis
primeiraPalavraA=parlament
primeiraPalavraA=estud
ultimaPalavraA=debug
ultimaPalavraA=pont
primeiraPalavraA=lend
primeiraPalavraA=edemocrac
ultimaPalavraB=degradant
primeiraPalavraB=enfrent
ultimaPalavraA=merec
ultimaPalavraB=diferent
ultimaPalavraA=jandira
ultimaPalavraA=explic
primeiraPalavraB=edemocrac
primeiraPalavraB=hipocris
primeiraPalavraB=hipocrit
primeiraPalavraA=asa
ultimaPalavraB=capelett
ultimaPalavraA=possivel
ultimaPalavraA=rs
ultimaPalavraA=popul
ultimaPalavraA=né
ultimaPalavraA=abrac
ultimaPalavraA=rg
primeiraPalavraB=forc
ultimaPalavraA=muit
ultimaPalavraA=parlapata
primeiraPalavraB=hor
primeiraPalavraB=inconstitucional
ultimaPalavraB=igual
primeiraPalavraB=jandira
ultimaPalavraA=tempo
ultimaPalavraB=deput
ultimaPalavraA=recomec
ultimaPalavraB=doenc
ultimaPalavraB=eugeniabat
ultimaPalavraA=objet
ultimaPalavraB=transmit
ultimaPalavraA=ssa
ultimaPalavraA=si
ultimaPalavraA=cham
ultimaPalavraA=pouc
primeiraPalavraB=interessant
ultimaPalavraA=tb
ultimaPalavraB=tens
primeiraPalavraB=magrinh
primeiraPalavraB=sdds
ultimaPalavraA=eugeniabat
primeiraPalavraA=estou
primeiraPalavraA=excelent
ultimaPalavraB=huun
ultimaPalavraB=signific
ultimaPalavraB=crm
ultimaPalavraA=sociavel
ultimaPalavraA=principi
primeiraPalavraA=epoc
ultimaPalavraB=quis
ultimaPalavraA=piad
primeiraPalavraA=viviany
primeiraPalavraB=concord
primeiraPalavraB=apressuposica
ultimaPalavraA=sozinh
primeiraPalavraA=palestrant
ultimaPalavraA=poss
ultimaPalavraB=priorit
ultimaPalavraB=vontad
ultimaPalavraA=monote
ultimaPalavraB=ahhh
primeiraPalavraB=rua
ultimaPalavraA=juiz
ultimaPalavraB=temp
ultimaPalavraB=harrison
ultimaPalavraA=twitt
ultimaPalavraA=posica
ultimaPalavraB=taaard
ultimaPalavraA=problem
ultimaPalavraA=padr
ultimaPalavraA=cult
ultimaPalavraA=kik
ultimaPalavraA=exclu
primeiraPalavraA=curt
primeiraPalavraB=implic
ultimaPalavraA=farmaceut
primeiraPalavraA=diferenc
ultimaPalavraA=cenari
primeiraPalavraA=implic
primeiraPalavraA=sdds
primeiraPalavraB=diret
ultimaPalavraA=argument
ultimaPalavraA=polit
primeiraPalavraB=cham
ultimaPalavraB=acess
ultimaPalavraB=content
primeiraPalavraB=chat
ultimaPalavraA=polic
ultimaPalavraB=parabensssssssssss
ultimaPalavraB=impressionant
ultimaPalavraA=oie
ultimaPalavraB=lug
primeiraPalavraB=exat
ultimaPalavraB=www.videolan.org
ultimaPalavraA=segu
ultimaPalavraA=junt
primeiraPalavraB=matemat
ultimaPalavraA=heheh
ultimaPalavraB=abertur
primeiraPalavraB=arrisc
primeiraPalavraB=estad
primeiraPalavraA=trat
ultimaPalavraA=onlin
primeiraPalavraB=consegu
ultimaPalavraB=inaceit
ultimaPalavraA=sim
ultimaPalavraB=secul
ultimaPalavraA=medic
primeiraPalavraB=educ
primeiraPalavraB=estam
primeiraPalavraB=hib
ultimaPalavraB=formal
ultimaPalavraA=vermelh
ultimaPalavraB=aham
ultimaPalavraA=apavorant
primeiraPalavraA=hipocrit
primeiraPalavraA=hipocris
primeiraPalavraA=seminari
ultimaPalavraA=brig
ultimaPalavraB=decisa
primeiraPalavraB=rol
primeiraPalavraA=mto
primeiraPalavraA=est
ultimaPalavraB=vicios
primeiraPalavraB=ador
ultimaPalavraA=pais
ultimaPalavraA=ola
primeiraPalavraB=viviany
ultimaPalavraB=procig
primeiraPalavraA=mud
ultimaPalavraA=gmail.com
primeiraPalavraB=pensament
ultimaPalavraB=promenor
ultimaPalavraB=homossexual
ultimaPalavraB=dependendic
ultimaPalavraA=dev
primeiraPalavraA=show
primeiraPalavraA=acab
mensagemATemNomeB=false
primeiraPalavraA=cotrat
ultimaPalavraB=negr
primeiraPalavraB=pesso
primeiraPalavraB=kkkkkkkk
primeiraPalavraB=sozinh
ultimaPalavraB=inferior
ultimaPalavraA=kkk
ultimaPalavraB=hin
primeiraPalavraA=relembr
primeiraPalavraB=icar
ultimaPalavraA=bobag
primeiraPalavraB=otim
ultimaPalavraA=edson
primeiraPalavraB=histor
ultimaPalavraB=xseminariolgbt
ultimaPalavraA=hotmail.com
ultimaPalavraB=hib
ultimaPalavraA=proteca
ultimaPalavraB=logic
ultimaPalavraA=amig
ultimaPalavraA=ond
ultimaPalavraB=yeshu
ultimaPalavraB=agradec
ultimaPalavraB=heheheh
primeiraPalavraA=link
ultimaPalavraA=just
ultimaPalavraA=foi
primeiraPalavraB=aprend
ultimaPalavraA=david
ultimaPalavraA=
ultimaPalavraA=for
primeiraPalavraA=lind
ultimaPalavraB=corret
primeiraPalavraA=compr
ultimaPalavraB=tamb
primeiraPalavraA=elit
ultimaPalavraB=hipocris
primeiraPalavraB=dai
primeiraPalavraB=palestrant
primeiraPalavraA=caraaaaaaacaa
ultimaPalavraA=venc
primeiraPalavraB=meu
ultimaPalavraB=
primeiraPalavraA=algum
ultimaPalavraB=zer
ultimaPalavraB=indign
ultimaPalavraA=eu
primeiraPalavraB=algu
primeiraPalavraA=soment
primeiraPalavraB=certissim
primeiraPalavraB=usuari
ultimaPalavraA=acompanh
primeiraPalavraB=med
ultimaPalavraA=compartilh
primeiraPalavraB=simmmmm
ultimaPalavraA=felician
ultimaPalavraA=serpr
primeiraPalavraB=vao
primeiraPalavraB=val
primeiraPalavraB=vam
ultimaPalavraA=evangeliz
primeiraPalavraB=rsrs
primeiraPalavraB=vai
primeiraPalavraB=ich
ultimaPalavraA=campanh
primeiraPalavraA=lembr
ultimaPalavraB=direit
ultimaPalavraB=individu
primeiraPalavraB=naum
ultimaPalavraA=tbm
ultimaPalavraB=moment
ultimaPalavraB=falt
ultimaPalavraB=control
ultimaPalavraB=edot
ultimaPalavraA=daos
primeiraPalavraA=enfrent
ultimaPalavraB=twitt
primeiraPalavraB=inclusiv
ultimaPalavraA=igualdad
ultimaPalavraA=vind
primeiraPalavraA=govern
primeiraPalavraB=debor
ultimaPalavraB=veu
primeiraPalavraA=prov
primeiraPalavraA=ire
ultimaPalavraB=ver
ultimaPalavraA=autoriz
ultimaPalavraB=red
primeiraPalavraA=grac
primeiraPalavraA=moed
ultimaPalavraB=audi
ultimaPalavraB=vej
ultimaPalavraA=foc
ultimaPalavraA=dá
ultimaPalavraA=tek
ultimaPalavraB=dai
primeiraPalavraB=entr
ultimaPalavraB=form
ultimaPalavraA=comum
primeiraPalavraB=tant
primeiraPalavraA=rol
ultimaPalavraB=ê
ultimaPalavraB=é
primeiraPalavraA=socializ
ultimaPalavraA=form
ultimaPalavraA=adot
primeiraPalavraB=tenh
ultimaPalavraB=concret
primeiraPalavraB=mar
ultimaPalavraB=zap
ultimaPalavraB=iran
ultimaPalavraA=consult
primeiraPalavraB=https
primeiraPalavraB=tamb
primeiraPalavraB=enta
primeiraPalavraB=tens
ultimaPalavraA=tel
primeiraPalavraB=vez
ultimaPalavraB=vcs
ultimaPalavraA=pior
ultimaPalavraB=ram
ultimaPalavraA=projet
primeiraPalavraB=proibica
ultimaPalavraA=voc
primeiraPalavraB=anvis
ultimaPalavraA=f5
primeiraPalavraB=vei
primeiraPalavraB=vej
ultimaPalavraA=persegu
ultimaPalavraB=rar
ultimaPalavraA=eh
ultimaPalavraA=moment
ultimaPalavraB=transmica
primeiraPalavraA=ache
ultimaPalavraB=bobag
ultimaPalavraA=thi
primeiraPalavraB=signific
primeiraPalavraA=gost
ultimaPalavraA=cm
ultimaPalavraA=control
primeiraPalavraB=tinh
primeiraPalavraB=esper
ultimaPalavraA=individu
ultimaPalavraB=vai
ultimaPalavraB=trabalh
ultimaPalavraB=vag
primeiraPalavraB=vcs
ultimaPalavraB=arraz
ultimaPalavraB=brig
ultimaPalavraB=vao
ultimaPalavraB=vam
ultimaPalavraA=otim
ultimaPalavraA=ok
ultimaPalavraA=oi
ultimaPalavraA=on
ultimaPalavraB=budist
primeiraPalavraB=putz
ultimaPalavraB=efeit
ultimaPalavraA=mund
primeiraPalavraB=dig
ultimaPalavraB=d
ultimaPalavraB=n
primeiraPalavraB=trat
ultimaPalavraA=crm
ultimaPalavraB=p
ultimaPalavraA=opinia
ultimaPalavraB=y
ultimaPalavraB=voc
primeiraPalavraA=educ
ultimaPalavraA=retir
primeiraPalavraB=eugen
ultimaPalavraB=s
primeiraPalavraA=decisa
ultimaPalavraB=religi
ultimaPalavraB=t
ultimaPalavraA=igual
primeiraPalavraA=desculp
ultimaPalavraB=vot
primeiraPalavraB=clar
primeiraPalavraA=concord
ultimaPalavraB=show
ultimaPalavraB=anvis
primeiraPalavraA=prii
primeiraPalavraB=viu
ultimaPalavraB=kkkkkkkkkkkkk
primeiraPalavraB=entend
ultimaPalavraA=friends
primeiraPalavraB=estud
ultimaPalavraB=babac
primeiraPalavraB=dign
primeiraPalavraB=baix
primeiraPalavraB=rssss
primeiraPalavraA=verdadeir
primeiraPalavraA=eit
primeiraPalavraA=program
ultimaPalavraA=cabec
primeiraPalavraA=ditador
ultimaPalavraB=vlw
ultimaPalavraB=suzan
primeiraPalavraB=pessoal
ultimaPalavraB=futur
primeiraPalavraA=compart
primeiraPalavraB=vend
ultimaPalavraA=errad
primeiraPalavraB=corret
ultimaPalavraB=certez
ultimaPalavraB=3
primeiraPalavraA=inclusiv
ultimaPalavraB=2
ultimaPalavraB=monote
primeiraPalavraB=venh
ultimaPalavraB=usand
ultimaPalavraB=tard
primeiraPalavraA=tinh
ultimaPalavraB=crista
primeiraPalavraB=belez
ultimaPalavraA=lá
ultimaPalavraB=glob
ultimaPalavraA=pr
ultimaPalavraA=human
primeiraPalavraA=igrej
ultimaPalavraB=cristo
ultimaPalavraB=fach
primeiraPalavraA=histor
ultimaPalavraB=cabec
primeiraPalavraA=oiee
primeiraPalavraB=capelett
ultimaPalavraA=explor
primeiraPalavraB=show
ultimaPalavraA=pc
ultimaPalavraB=lei
ultimaPalavraA=comentari
primeiraPalavraA=continu
ultimaPalavraA=cognit
primeiraPalavraA=sincer
ultimaPalavraB=morr
ultimaPalavraA=quis
primeiraPalavraB=voc
ultimaPalavraB=descrica
ultimaPalavraA=show
primeiraPalavraB=estou
primeiraPalavraA=agor
primeiraPalavraB=dev
primeiraPalavraB=deu
primeiraPalavraB=der
ultimaPalavraB=dit
ultimaPalavraB=diz
ultimaPalavraA=assist
primeiraPalavraB=vot
primeiraPalavraB=vou
ultimaPalavraA=impost
ultimaPalavraB=fail
primeiraPalavraA=eba
ultimaPalavraA=diss
ultimaPalavraA=fé
ultimaPalavraB=8888
ultimaPalavraB=terrivel
primeiraPalavraB=questa
ultimaPalavraA=yeshu
ultimaPalavraB=turm
ultimaPalavraB=preconceit
primeiraPalavraB=falt
primeiraPalavraA=prez
primeiraPalavraA=blz
primeiraPalavraA=ich
primeiraPalavraB=vlw
ultimaPalavraB=real
ultimaPalavraA=mi
primeiraPalavraA=jesus
primeiraPalavraA=trabalh
ultimaPalavraB=vid
ultimaPalavraA=umbad
ultimaPalavraA=disc
primeiraPalavraA=yep
ultimaPalavraB=igualitari
ultimaPalavraA=aparec
ultimaPalavraA=minutossssssss
primeiraPalavraA=boa
ultimaPalavraB=felician
primeiraPalavraB=ladinh
primeiraPalavraB=resolv
primeiraPalavraA=bom
ultimaPalavraA=la
ultimaPalavraB=viv
primeiraPalavraA=magn
primeiraPalavraB=hum
ultimaPalavraB=eheheh
primeiraPalavraB=minh
ultimaPalavraB=comic
ultimaPalavraB=rebec
ultimaPalavraB=remedi
ultimaPalavraB=matemat
primeiraPalavraB=direit
ultimaPalavraB=lip
ultimaPalavraB=lgbt
primeiraPalavraB=opa
primeiraPalavraB=kkk
ultimaPalavraB=vc
ultimaPalavraB=carr
ultimaPalavraA=discusa
ultimaPalavraB=fundamental
primeiraPalavraA=foc
ultimaPalavraB=trail
primeiraPalavraA=foi
ultimaPalavraA=lut
ultimaPalavraA=infeliz
ultimaPalavraB=finez
ultimaPalavraA=discurs
ultimaPalavraB=violin
primeiraPalavraA=infeliz
primeiraPalavraB=cotrat
primeiraPalavraA=march
ultimaPalavraA=dess
primeiraPalavraA=marci
ultimaPalavraB=assust
ultimaPalavraA=escol
ultimaPalavraB=event
primeiraPalavraB=hadad
ultimaPalavraA=mang
ultimaPalavraB=opinia
primeiraPalavraB=sou
primeiraPalavraB=ond
primeiraPalavraA=flw
ultimaPalavraA=edemocrac
primeiraPalavraA=president
primeiraPalavraA=nom
ultimaPalavraB=rss
ultimaPalavraA=peg
ultimaPalavraB=piad
ultimaPalavraB=casament
ultimaPalavraB=tb
ultimaPalavraA=pen
primeiraPalavraA=amer
ultimaPalavraB=dogm
ultimaPalavraA=kelly
ultimaPalavraB=farmaceut
ultimaPalavraA=zer
ultimaPalavraB=brasil
primeiraPalavraB=kkkkkkkkkkkkk
ultimaPalavraA=bomb
primeiraPalavraA=sao
primeiraPalavraA=pensament
primeiraPalavraA=sai
primeiraPalavraB=concod
primeiraPalavraB=ops
primeiraPalavraA=noss
primeiraPalavraA=barban
primeiraPalavraA=simbol
ultimaPalavraB=fui
ultimaPalavraA=frequent
primeiraPalavraA=preguicinh
primeiraPalavraA=sab
ultimaPalavraA=pes
ultimaPalavraB=si
primeiraPalavraA=religia
ultimaPalavraB=tort
ultimaPalavraB=assin
ultimaPalavraB=pergunt
ultimaPalavraB=rum
ultimaPalavraB=rg
ultimaPalavraB=jenif
primeiraPalavraA=unic
primeiraPalavraB=victoz
primeiraPalavraB=govern
ultimaPalavraA=leis
ultimaPalavraB=rs
ultimaPalavraB=respeit
ultimaPalavraB=rua
ultimaPalavraB=né
ultimaPalavraB=senari
primeiraPalavraB=unic
primeiraPalavraA=tant
primeiraPalavraA=tens
ultimaPalavraA=desconfort
ultimaPalavraA=firefox
primeiraPalavraB=nick
ultimaPalavraB=amig
primeiraPalavraB=grand
ultimaPalavraB=bug
ultimaPalavraA=marc
primeiraPalavraB=corp
ultimaPalavraB=human
primeiraPalavraA=tenh
ultimaPalavraB=roup
ultimaPalavraB=fernand
primeiraPalavraB=taaard
ultimaPalavraB=pc
primeiraPalavraA=oper
ultimaPalavraB=lá
ultimaPalavraB=resist
ultimaPalavraA=heheheh
ultimaPalavraB=calm
ultimaPalavraA=signific
primeiraPalavraB=ellefort
ultimaPalavraB=pr
ultimaPalavraB=ouv
ultimaPalavraA=vontad
ultimaPalavraB=medic
ultimaPalavraB=pq
ultimaPalavraA=ofend
ultimaPalavraA=aprad
ultimaPalavraA=preconceitu
primeiraPalavraA=sei
primeiraPalavraA=ser
primeiraPalavraA=corret
primeiraPalavraB=ola
primeiraPalavraA=exat
ultimaPalavraB=lapel
ultimaPalavraB=on
ultimaPalavraB=ok
ultimaPalavraB=edemocrac
primeiraPalavraB=olh
ultimaPalavraB=oi
ultimaPalavraA=par
ultimaPalavraA=pap
ultimaPalavraA=secul
ultimaPalavraB=bot
ultimaPalavraA=deix
primeiraPalavraA=ensin
primeiraPalavraB=prez
ultimaPalavraA=pod
ultimaPalavraB=bom
ultimaPalavraA=totalmenet
primeiraPalavraA=usuari
ultimaPalavraB=totalmenet
ultimaPalavraA=seminari
ultimaPalavraB=bow
ultimaPalavraB=parlapata
ultimaPalavraA=pov
ultimaPalavraB=gay
ultimaPalavraA=marci
ultimaPalavraA=defas
ultimaPalavraB=islam
ultimaPalavraA=engrac
primeiraPalavraB=kkkkk
ultimaPalavraB=gal
primeiraPalavraB=legal
ultimaPalavraB=flav
primeiraPalavraA=parabens
ultimaPalavraB=rir
ultimaPalavraA=problemat
ultimaPalavraA=direca
ultimaPalavraA=cear
ultimaPalavraB=cardiovascul
ultimaPalavraB=par
ultimaPalavraB=pap
ultimaPalavraA=ced
primeiraPalavraB=oie
ultimaPalavraB=repercut
primeiraPalavraA=pessoal
primeiraPalavraB=preconceit
primeiraPalavraB=remedi
ultimaPalavraB=rsrs
ultimaPalavraA=atras
ultimaPalavraA=ruim
primeiraPalavraB=93
ultimaPalavraA=justic
primeiraPalavraB=defend
ultimaPalavraA=minut
primeiraPalavraB=juridic
ultimaPalavraA=tumultu
ultimaPalavraB=socrat
ultimaPalavraB=seminari
ultimaPalavraA=hor
ultimaPalavraB=boc
primeiraPalavraB=question
primeiraPalavraB=camil
ultimaPalavraB=boa
ultimaPalavraB=material
ultimaPalavraB=comun
ultimaPalavraA=igualitari
ultimaPalavraB=sair
ultimaPalavraA=lip
primeiraPalavraB=finamentem
ultimaPalavraB=venen
ultimaPalavraA=mail
primeiraPalavraB=
ultimaPalavraA=venen
ultimaPalavraB=justic
ultimaPalavraA=reclam
primeiraPalavraA=ignoranc
ultimaPalavraA=kkkkkkkkkkkkk
primeiraPalavraB=enfim
primeiraPalavraB=novel
ultimaPalavraA=hib
ultimaPalavraA=anot
primeiraPalavraA=volt
ultimaPalavraB=kkk
ultimaPalavraA=repercut
ultimaPalavraB=blz
primeiraPalavraB=obg
primeiraPalavraB=ssa
ultimaPalavraB=singular
ultimaPalavraB=comum
primeiraPalavraA=brig
ultimaPalavraA=heaheu
ultimaPalavraB=jean
ultimaPalavraA=hin
ultimaPalavraB=oiiiee
ultimaPalavraB=configur
primeiraPalavraB=cris
ultimaPalavraB=hahahahahahahahahahahahah
ultimaPalavraB=rod
ultimaPalavraA=banc
ultimaPalavraB=agend
ultimaPalavraB=incomod
primeiraPalavraB=grac
primeiraPalavraA=erich
ultimaPalavraB=rol
ultimaPalavraA=cas
ultimaPalavraA=car
ultimaPalavraB=xd
primeiraPalavraB=suz
ultimaPalavraB=dorm
ultimaPalavraA=parabens
ultimaPalavraA=realidad
ultimaPalavraB=bjo
primeiraPalavraA=interessant
primeiraPalavraA=
ultimaPalavraA=direit
ultimaPalavraA=relacion
ultimaPalavraB=retir
ultimaPalavraA=favor
primeiraPalavraB=maneir
primeiraPalavraB=volt
ultimaPalavraB=ningu
ultimaPalavraB=govern
primeiraPalavraA=tu
primeiraPalavraA=joa
ultimaPalavraB=latim
ultimaPalavraA=d
primeiraPalavraA=sou
primeiraPalavraB=verdad
ultimaPalavraB=metafor
ultimaPalavraA=n
primeiraPalavraB=favor
ultimaPalavraB=frent
primeiraPalavraA=naum
ultimaPalavraA=p
ultimaPalavraB=laicidad
ultimaPalavraB=plataform
primeiraPalavraA=solteir
ultimaPalavraA=v
ultimaPalavraA=s
ultimaPalavraA=t
ultimaPalavraB=eh
ultimaPalavraB=arvor
ultimaPalavraB=compulsa
primeiraPalavraB=constituica
ultimaPalavraA=minor
ultimaPalavraA=formal
ultimaPalavraB=aí
ultimaPalavraB=continu
ultimaPalavraA=simbol
primeiraPalavraB=30
primeiraPalavraA=ta
primeiraPalavraA=diogguinhu
ultimaPalavraB=eu
primeiraPalavraA=td
primeiraPalavraA=tb
ultimaPalavraA=lei
primeiraPalavraB=26
ultimaPalavraA=exempl
primeiraPalavraB=heheheheh
ultimaPalavraB=discrimin
primeiraPalavraA=imagin
primeiraPalavraB=escol
ultimaPalavraB=heheh
primeiraPalavraA=gisel
primeiraPalavraA=to
ultimaPalavraB=bh
ultimaPalavraA=blz
ultimaPalavraB=kik
primeiraPalavraB=vinici
primeiraPalavraB=sai
primeiraPalavraA=moviment
ultimaPalavraB=sep
primeiraPalavraA=ach
primeiraPalavraA=matemat
primeiraPalavraB=sab
ultimaPalavraB=ser
ultimaPalavraB=cm
ultimaPalavraB=sei
primeiraPalavraA=vc
ultimaPalavraA=incomod
ultimaPalavraB=imagin
ultimaPalavraB=conhec
ultimaPalavraA=laicidad
primeiraPalavraA=vi
ultimaPalavraB=normat
primeiraPalavraA=abr
ultimaPalavraA=barban
ultimaPalavraA=evangel
ultimaPalavraB=oie
primeiraPalavraA=vo
primeiraPalavraB=cad
ultimaPalavraA=torc
ultimaPalavraA=é
ultimaPalavraA=ê
ultimaPalavraB=jacob
ultimaPalavraB=rsss
primeiraPalavraB=chrom
primeiraPalavraB=cal
primeiraPalavraB=cam
ultimaPalavraB=seri
ultimaPalavraA=laic
ultimaPalavraA=20h
primeiraPalavraB=cas
primeiraPalavraB=claudet
primeiraPalavraA=ador
primeiraPalavraA=obg
primeiraPalavraA=dogm
ultimaPalavraA=tort
ultimaPalavraB=steni
primeiraPalavraA=ué
ultimaPalavraB=pass
ultimaPalavraB=homoafet
ultimaPalavraA=govern
ultimaPalavraB=pior
ultimaPalavraB=entrar
primeiraPalavraA=tá
primeiraPalavraA=só
primeiraPalavraA=ssa
ultimaPalavraB=liberdad
primeiraPalavraA=complet
ultimaPalavraB=muit
ultimaPalavraA=bem
primeiraPalavraB=lal
primeiraPalavraB=melhor
ultimaPalavraB=sord
primeiraPalavraA=exempl
primeiraPalavraA=cert
ultimaPalavraA=psc
primeiraPalavraA=infiel
primeiraPalavraA=suz
primeiraPalavraA=fac
primeiraPalavraA=fal
primeiraPalavraB=kelly
ultimaPalavraB=acompanh
primeiraPalavraA=faz
ultimaPalavraB=long
ultimaPalavraB=holond
primeiraPalavraA=talvez
ultimaPalavraB=gent
ultimaPalavraB=sociavel
primeiraPalavraB=imagin
ultimaPalavraB=sim
primeiraPalavraA=melhor
ultimaPalavraB=acontec
ultimaPalavraA=motiv
ultimaPalavraB=nazist
primeiraPalavraA=chrom
ultimaPalavraB=part
ultimaPalavraB=mg
ultimaPalavraB=mi
primeiraPalavraB=acertadissim
ultimaPalavraA=cert
primeiraPalavraA=me
ultimaPalavraA=feijo
ultimaPalavraB=obrig
ultimaPalavraB=problem
primeiraPalavraB=certez
primeiraPalavraB=hahahahahahahahahahahahah
primeiraPalavraA=mi
primeiraPalavraB=divorci
ultimaPalavraB=pleas
ultimaPalavraB=aureli
ultimaPalavraB=infeliz
ultimaPalavraA=entend
primeiraPalavraB=logic
ultimaPalavraB=represent
ultimaPalavraA=carr
ultimaPalavraB=exercici
primeiraPalavraA=anvis
ultimaPalavraB=objet
primeiraPalavraA=kkkkkkkkkkkkk
primeiraPalavraB=moed
ultimaPalavraB=emocion
ultimaPalavraA=wyllys
ultimaPalavraB=entreg
ultimaPalavraA=content
ultimaPalavraB=segu
ultimaPalavraB=baix
ultimaPalavraB=inconstitucional
ultimaPalavraA=suzan
primeiraPalavraB=leg
ultimaPalavraB=cas
ultimaPalavraB=car
primeiraPalavraB=lei
ultimaPalavraB=cam
ultimaPalavraB=cal
ultimaPalavraA=list
ultimaPalavraB=mund
primeiraPalavraA=parec
ultimaPalavraA=dogm
ultimaPalavraA=homoafet
primeiraPalavraB=sim
primeiraPalavraA=ok
primeiraPalavraA=oi
primeiraPalavraB=obrig
ultimaPalavraA=abertur
ultimaPalavraA=corrupt
primeiraPalavraA=no
ultimaPalavraA=aiiii
ultimaPalavraA=paradox
ultimaPalavraA=seri
ultimaPalavraB=keep
primeiraPalavraA=sim
ultimaPalavraB=chrom
primeiraPalavraA=nd
primeiraPalavraA=já
primeiraPalavraA=oie
ultimaPalavraB=rsrsrsrs
ultimaPalavraB=kkkkkk
ultimaPalavraA=soluca
primeiraPalavraA=temp
primeiraPalavraA=mt
ultimaPalavraB=la
ultimaPalavraB=comentari
ultimaPalavraA=filial
ultimaPalavraA=lind
primeiraPalavraA=ql
ultimaPalavraA=matemat
primeiraPalavraA=aqu
primeiraPalavraB=hilb
ultimaPalavraA=boa
ultimaPalavraB=otim
ultimaPalavraA=boc
primeiraPalavraB=preambul
ultimaPalavraB=irrespons
primeiraPalavraA=pq
primeiraPalavraB=lhe
ultimaPalavraB=verific
primeiraPalavraA=po
ultimaPalavraA=link
ultimaPalavraB=ola
primeiraPalavraA=pr
ultimaPalavraA=homofob
primeiraPalavraB=lip
ultimaPalavraB=fé
ultimaPalavraA=internet
primeiraPalavraA=heheheh
ultimaPalavraB=expectat
primeiraPalavraB=caraaaaaaacaa
ultimaPalavraA=domicili
primeiraPalavraA=lá
primeiraPalavraB=sao
primeiraPalavraB=pens
ultimaPalavraB=pesso
primeiraPalavraB=discurs
ultimaPalavraB=principi
primeiraPalavraA=felician
primeiraPalavraA=oq
ultimaPalavraB=banc
ultimaPalavraA=frent
primeiraPalavraA=certez
primeiraPalavraB=sei
ultimaPalavraB=cois
ultimaPalavraB=sao
ultimaPalavraA=3
ultimaPalavraB=sal
primeiraPalavraB=ser
ultimaPalavraB=sap
ultimaPalavraA=2
ultimaPalavraA=1
primeiraPalavraA=apressuposica
primeiraPalavraB=yeshu
ultimaPalavraA=expressa
primeiraPalavraA=ola
primeiraPalavraB=incomod
ultimaPalavraB=ond
primeiraPalavraA=olh
ultimaPalavraB=jeann
ultimaPalavraA=public
primeiraPalavraA=rs
ultimaPalavraA=conhec
primeiraPalavraB=pior
ultimaPalavraA=maior
primeiraPalavraB=marci
ultimaPalavraA=bow
ultimaPalavraB=dá
ultimaPalavraA=escapator
ultimaPalavraA=continu
ultimaPalavraA=bom
primeiraPalavraA=fic
primeiraPalavraA=algu
primeiraPalavraA=isonom
primeiraPalavraB=pergunt
ultimaPalavraA=pesso
ultimaPalavraB=sab
primeiraPalavraA=lal
ultimaPalavraA=conserv
ultimaPalavraB=perd
primeiraPalavraA=tbm
primeiraPalavraA=resolv
primeiraPalavraA=eh
ultimaPalavraA=totalitar
ultimaPalavraB=internet
primeiraPalavraB=encher
numeroMsgsEntreAeB=-1
ultimaPalavraB=bussiness
primeiraPalavraB=elit
primeiraPalavraB=cert
primeiraPalavraA=eu
primeiraPalavraB=barban
ultimaPalavraA=expectat
ultimaPalavraB=nenhum
primeiraPalavraB=rsrsrsss
ultimaPalavraB=aul
ultimaPalavraA=estud
primeiraPalavraB=recom
primeiraPalavraB=ai
primeiraPalavraB=ah
primeiraPalavraA=ops
ultimaPalavraA=finez
primeiraPalavraB=pri
ultimaPalavraB=assist
primeiraPalavraA=debat
primeiraPalavraB=ae
ultimaPalavraA=2000
ultimaPalavraB=etc
primeiraPalavraB=huaheu
primeiraPalavraB=fic
primeiraPalavraA=otim
ultimaPalavraA=audienc
ultimaPalavraB=ssa
ultimaPalavraA=yep
ultimaPalavraA=inapropri
ultimaPalavraB=autoriz
primeiraPalavraB=bh
ultimaPalavraA=long
primeiraPalavraA=opa
ultimaPalavraA=empreg
primeiraPalavraB=fiz
ultimaPalavraA=igu
ultimaPalavraB=cear
ultimaPalavraB=anot
ultimaPalavraA=desigualdad
ultimaPalavraA=compulsa
ultimaPalavraA=namor
ultimaPalavraA=convers
primeiraPalavraA=ladinh
primeiraPalavraA=dr
ultimaPalavraA=offic
primeiraPalavraB=foc
primeiraPalavraB=pox
ultimaPalavraA=assust
primeiraPalavraA=ih
numeroMsgsEntreAeB=10
primeiraPalavraB=blz
primeiraPalavraB=foi
primeiraPalavraB=conhec
primeiraPalavraB=camp
ultimaPalavraB=realidad
ultimaPalavraA=sair
ultimaPalavraB=erros
primeiraPalavraB=pow
primeiraPalavraA=lei
ultimaPalavraB=verdad
numeroMsgsEntreAeB=15
primeiraPalavraA=ja
primeiraPalavraB=orient
ultimaPalavraB=pens
primeiraPalavraB=dr
primeiraPalavraB=gisel
primeiraPalavraB=pod
primeiraPalavraA=tes
primeiraPalavraB=eu
ultimaPalavraA=plataform
primeiraPalavraA=budist
primeiraPalavraA=budism
ultimaPalavraA=marginal
primeiraPalavraB=igualdad
ultimaPalavraB=natanael.rsrsrsr
primeiraPalavraB=tow
ultimaPalavraB=palavr
primeiraPalavraB=joa
primeiraPalavraB=eh
ultimaPalavraA=diferent
ultimaPalavraB=evangeliz
ultimaPalavraA=pesquis
primeiraPalavraA=hahahahahahahahahahahahah
ultimaPalavraA=claud
ultimaPalavraB=padr
primeiraPalavraB=ensin
ultimaPalavraA=congress
ultimaPalavraA=estou
ultimaPalavraA=msn
primeiraPalavraB=elci
ultimaPalavraA=msm
ultimaPalavraB=corrupt
primeiraPalavraB=evangel
primeiraPalavraB=flw
ultimaPalavraB=aqu
primeiraPalavraB=bom
primeiraPalavraA=taaard
ultimaPalavraA=www.videolan.org
primeiraPalavraB=mostr
ultimaPalavraB=apavorant
ultimaPalavraB=trabai
primeiraPalavraB=erich
ultimaPalavraB=posica
ultimaPalavraB=henr
primeiraPalavraA=daniel
primeiraPalavraB=boa
primeiraPalavraB=relevanc
primeiraPalavraA=tem
primeiraPalavraB=calm
ultimaPalavraB=frequent
ultimaPalavraB=popul
ultimaPalavraA=aul
ultimaPalavraB=cancel
ultimaPalavraB=carol
primeiraPalavraA=resum
primeiraPalavraA=conhec
primeiraPalavraB=mulh
ultimaPalavraB=onlin
primeiraPalavraB=preguicinh
primeiraPalavraA=senari
ultimaPalavraB=banguel
primeiraPalavraB=compart
primeiraPalavraB=poem
ultimaPalavraB=ali
primeiraPalavraB=solteir
primeiraPalavraA=corp
ultimaPalavraB=wyllys
ultimaPalavraA=uol
ultimaPalavraA=injust
ultimaPalavraB=diabet
primeiraPalavraB=nunc
ultimaPalavraB=atenca
ultimaPalavraA=preguicinh
ultimaPalavraB=rosangel
ultimaPalavraA=mot
ultimaPalavraB=minor
ultimaPalavraB=zumb
primeiraPalavraB=fac
primeiraPalavraB=muit
ultimaPalavraA=brasil
ultimaPalavraA=verdad
ultimaPalavraB=federal
ultimaPalavraA=bbb
ultimaPalavraA=tecnic
primeiraPalavraA=remedi
ultimaPalavraB=desconfort
primeiraPalavraB=especial
primeiraPalavraB=fal
primeiraPalavraB=faz
ultimaPalavraA=inat
primeiraPalavraA=baix
ultimaPalavraB=afaz
ultimaPalavraA=mmo
ultimaPalavraA=cois
primeiraPalavraA=calm
ultimaPalavraB=minut
ultimaPalavraA=aconte
primeiraPalavraB=felician
primeiraPalavraA=yeshu
primeiraPalavraA=ae
primeiraPalavraA=concod
primeiraPalavraA=ah
primeiraPalavraA=ai
ultimaPalavraB=leis
primeiraPalavraB=budism
primeiraPalavraB=oiiiee
primeiraPalavraB=budist
ultimaPalavraB=oiee
ultimaPalavraB=laic
primeiraPalavraA=huun
ultimaPalavraB=envolv
ultimaPalavraB=gran
primeiraPalavraA=defend
primeiraPalavraB=kellypats
ultimaPalavraA=kellypats
primeiraPalavraB=procur
ultimaPalavraA=estranh
ultimaPalavraA=debat
ultimaPalavraB=judicial
ultimaPalavraA=dorm
primeiraPalavraB=pen
ultimaPalavraB=exclu
ultimaPalavraA=respond
primeiraPalavraB=pep
ultimaPalavraA=impressionant
primeiraPalavraA=gmail.com
primeiraPalavraB=peg
ultimaPalavraB=som
ultimaPalavraA=o.o
ultimaPalavraA=80
ultimaPalavraA=carol
ultimaPalavraA=particip
ultimaPalavraA=pensament
primeiraPalavraA=pergunt
primeiraPalavraB=cade
primeiraPalavraA=aquel
ultimaPalavraB=respond
ultimaPalavraB=desej
primeiraPalavraB=qualific
ultimaPalavraB=aconte
ultimaPalavraB=guerr
ultimaPalavraB=cult
ultimaPalavraB=thi
primeiraPalavraB=diogguinhu
ultimaPalavraA=morr
ultimaPalavraB=pedofil
primeiraPalavraB=par
ultimaPalavraB=marc
ultimaPalavraA=remedi
ultimaPalavraA=vid
ultimaPalavraA=indign
primeiraPalavraB=atualiz
ultimaPalavraA=oiee
primeiraPalavraB=infeliz
ultimaPalavraA=mid
ultimaPalavraB=bem
ultimaPalavraA=gost
ultimaPalavraA=viv
primeiraPalavraA=retir
ultimaPalavraA=mit
primeiraPalavraB=ditador
ultimaPalavraA=dificil
ultimaPalavraB=reconhec
primeiraPalavraB=tbm
ultimaPalavraA=mim
ultimaPalavraB=pared
ultimaPalavraA=acontec
ultimaPalavraB=parec
primeiraPalavraA=assust
primeiraPalavraA=enta
primeiraPalavraB=jacob
primeiraPalavraB=kkkk
primeiraPalavraB=cabec
ultimaPalavraB=cidad
ultimaPalavraA=criminal
primeiraPalavraB=dogm
ultimaPalavraA=metafor
primeiraPalavraB=realment
ultimaPalavraB=ter
ultimaPalavraB=tel
ultimaPalavraB=tek
ultimaPalavraB=tem
primeiraPalavraA=muit
ultimaPalavraA=budist
ultimaPalavraB=cert
ultimaPalavraB=film
ultimaPalavraA=carat
ultimaPalavraB=filh
ultimaPalavraA=natanael.rsrsrsr
ultimaPalavraB=burric
ultimaPalavraB=polit
primeiraPalavraA=rsrs
ultimaPalavraB=mang
ultimaPalavraB=dess
primeiraPalavraB=ache
ultimaPalavraB=carat
ultimaPalavraB=neg
ultimaPalavraB=neh
ultimaPalavraB=polic
primeiraPalavraA=pior
primeiraPalavraA=par
primeiraPalavraA=jean
ultimaPalavraA=meu
primeiraPalavraB=oiee
primeiraPalavraB=program
ultimaPalavraA=medicin
ultimaPalavraB=trolls.rsrsr
ultimaPalavraB=instant
primeiraPalavraB=igrej
primeiraPalavraA=quis
primeiraPalavraA=classific
ultimaPalavraB=fal
primeiraPalavraB=corag
primeiraPalavraA=obrig
ultimaPalavraA=vej
primeiraPalavraA=toleranc
primeiraPalavraB=depend
ultimaPalavraA=ver
ultimaPalavraB=faz
ultimaPalavraA=volt
ultimaPalavraA=med
ultimaPalavraA=encontr
primeiraPalavraB=desculp
ultimaPalavraB=kellypats
primeiraPalavraB=palavr
ultimaPalavraB=vermelh
ultimaPalavraB=entend
primeiraPalavraA=palavr
ultimaPalavraB=jah
ultimaPalavraA=add
ultimaPalavraB=favor
ultimaPalavraB=leeeentaa
ultimaPalavraA=dependendic
primeiraPalavraB=heheheh
ultimaPalavraB=tir
ultimaPalavraB=feijo
ultimaPalavraB=perig
ultimaPalavraB=vide
ultimaPalavraA=trist
primeiraPalavraB=infiel
ultimaPalavraB=errad
ultimaPalavraA=promenor
ultimaPalavraB=edson
ultimaPalavraA=aguent
primeiraPalavraA=orient
primeiraPalavraA=pep
primeiraPalavraA=pen
ultimaPalavraB=nad
ultimaPalavraA=rodrig
ultimaPalavraA=obes
primeiraPalavraB=ningu
primeiraPalavraA=peg
ultimaPalavraB=engrac
ultimaPalavraB=estagi
ultimaPalavraA=iran
ultimaPalavraB=democrac
ultimaPalavraA=rosangel
ultimaPalavraA=ram
ultimaPalavraB=rodrig
primeiraPalavraB=sincer
ultimaPalavraB=friends
ultimaPalavraA=mat
ultimaPalavraB=compartilh
ultimaPalavraA=aqu
ultimaPalavraA=mal
ultimaPalavraB=nom
ultimaPalavraA=transmica
primeiraPalavraA=serginh
ultimaPalavraA=predominant
ultimaPalavraB=nov
primeiraPalavraB=epoc
ultimaPalavraA=falt
ultimaPalavraB=henriqu
ultimaPalavraB=disponibiliz
ultimaPalavraB=inquisica
ultimaPalavraA=vao
primeiraPalavraA=heaheuaheu
ultimaPalavraA=particul
ultimaPalavraA=vam
ultimaPalavraA=experiente
ultimaPalavraB=minutossssssss
ultimaPalavraA=cidad
ultimaPalavraB=igrej
ultimaPalavraA=vai
ultimaPalavraA=rebec
ultimaPalavraA=segur
primeiraPalavraB=ó
primeiraPalavraB=assust
primeiraPalavraB=tir
ultimaPalavraB=foi
primeiraPalavraA=aprend
ultimaPalavraA=hahahahah
primeiraPalavraA=simpl
ultimaPalavraB=foc
ultimaPalavraB=for
primeiraPalavraB=é
primeiraPalavraA=tir
primeiraPalavraA=iran
ultimaPalavraB=sexual
primeiraPalavraB=thi
ultimaPalavraB=portugu
primeiraPalavraB=agor
ultimaPalavraA=gran
primeiraPalavraA=kik
primeiraPalavraB=pequen
ultimaPalavraA=vcs
ultimaPalavraB=diminut
ultimaPalavraA=anterior
ultimaPalavraA=grac
primeiraPalavraA=thi
primeiraPalavraB=natanael
ultimaPalavraA=procig
ultimaPalavraB=tumultu
ultimaPalavraB=grup
ultimaPalavraA=fail
ultimaPalavraB=fiz
ultimaPalavraA=ano
primeiraPalavraA=legal
primeiraPalavraB=heaheuaheu
primeiraPalavraB=2
ultimaPalavraB=expressa
ultimaPalavraB=exempl
primeiraPalavraB=3
ultimaPalavraB=argument
ultimaPalavraB=fig
primeiraPalavraA=tow
primeiraPalavraB=socializ
primeiraPalavraB=acab
ultimaPalavraB=flavi
ultimaPalavraA=enrol
ultimaPalavraA=naveg
primeiraPalavraA=kkk
ultimaPalavraA=rsrs
ultimaPalavraA=epoc
ultimaPalavraB=paradox
ultimaPalavraA=discrimin
ultimaPalavraA=palavr
primeiraPalavraA=exist
primeiraPalavraA=precis
ultimaPalavraB=tbm
primeiraPalavraA=pox
primeiraPalavraA=entr
primeiraPalavraA=pow
primeiraPalavraB=kik
ultimaPalavraB=servic
ultimaPalavraB=vind
ultimaPalavraB=heaheu
primeiraPalavraA=pod
primeiraPalavraB=ter
ultimaPalavraA=inquisica
primeiraPalavraB=tes
primeiraPalavraA=kkkkk
primeiraPalavraB=tem
ultimaPalavraA=alm
primeiraPalavraB=poss
primeiraPalavraA=questa
ultimaPalavraB=daos
primeiraPalavraA=atualiz
primeiraPalavraA=https
primeiraPalavraB=q
primeiraPalavraB=s
ultimaPalavraA=socrat
ultimaPalavraA=efeit
ultimaPalavraA=plugin
ultimaPalavraB=camil
primeiraPalavraB=pendur
primeiraPalavraB=n
ultimaPalavraA=atenca
ultimaPalavraB=ajud
primeiraPalavraB=c
primeiraPalavraB=d
ultimaPalavraA=igrej
primeiraPalavraB=gordinh
ultimaPalavraB=sociedad
primeiraPalavraB=parabens
ultimaPalavraB=david
ultimaPalavraB=campanh
primeiraPalavraB=hheheh
ultimaPalavraB=flr
primeiraPalavraB=parec
ultimaPalavraB=desigualdad
ultimaPalavraA=descrica
primeiraPalavraB=relembr
ultimaPalavraB=comisso
ultimaPalavraB=mesquinh
primeiraPalavraA=mulh
ultimaPalavraA=aham
ultimaPalavraA=estagi
primeiraPalavraA=ufa
ultimaPalavraA=entreg
primeiraPalavraA=corrig
primeiraPalavraA=aham
ultimaPalavraA=bjo
ultimaPalavraA=trail
ultimaPalavraA=calm
primeiraPalavraA=ernan
primeiraPalavraA=flor
0.3618266296161979
0.757472961769784
0.28385595358560517
0.8121585212995959
0.5039937965870546
0.4894647819675123
0.6702963854213384
0.6747188151860104
0.6898527731791313
0.5554672776735664
0.7473664119476763
0.632711294901581
0.8847971744259153
0.7921525027761873
0.6318794733787734
0.32987046667022213
0.510114001503106
0.45363289008967117
0.6314292004513479
1.4267190307190982
0.32239260738921927
0.6484460503456144
0.4299263477053034
1.5267177361665485
0.9432264795122254
0.534357086972898
0.7205086915528244
0.3657134013101706
0.4875430130121421
0.5155735926331463
0.5001040479570703
0.38734876974337645
0.5641979227280344
0.3707694738332097
0.3105058326518233
1.6204660014658738
1.1220152030057509
1.6170506441478563
0.9027100187522197
0.5840644781161868
1.2249385133169275
0.5919449664967797
0.5050419790476514
0.22329138188022157
0.25735776989543313
0.36603091214832345
0.17749249411218102
1.5446015964061528
0.671614489143366
0.40027167649957296
0.6731897296444481
0.4408334319131852
0.3717143078809186
0.4186791092045562
1.6359874878425635
0.2675814022716732
0.6274704047447328
1.7707696257827072
0.6119286673417926
0.3684968484949179
2.264335162231806
0.5514322932151585
0.3056917065276261
0.24171170077598336
0.8440057085315459
1.3521878756350325
0.6025129271037086
0.38685417267896416
0.6657420600586953
0.88292316327016
0.7182397333065053
0.4349235933761799
0.36844722623237597
0.45880629795120487
0.45203624466421655
0.4316860855386009
0.41051237300056187
0.5796820751162725
1.4093589615287567
0.30082942936711515
0.6072487518669454
0.4225068004219459
0.30451307549110335
0.5901394763119284
0.45129151351795843
0.23036796146151986
0.43085647581938014
0.6278418966815215
1.9844332519742722
0.7464504723115127
0.5356913439930634
0.19012223684673016
0.5754029846674652
0.37836023270539854
0.369525178745899
0.513409231449934
0.42185126025466074
0.6130533405316687
1.905817900836933
0.6914836243792614
0.3832324051850145
0.36591759819402436
0.24296476552275947
0.7052017180348092
0.7819954069028124
0.4684940270948761
0.550987449728873
0.6130533405316687
0.5086456513448789
0.5893842239856844
0.7761522686829114
0.6775970526698293
1.3521878756350325
0.3700597754763736
0.6253812659535453
0.3985552027339213
0.500527993195486
0.6284691897579141
0.33747135925899246
0.32090522301723196
0.6366761660515092
0.41051237300056187
1.0573144104068677
0.8114922458347271
0.19658408467882174
0.5144348879513697
0.4557813870945354
0.7051124471040874
0.369920362384093
0.5092667422015176
0.40027167649957296
0.6406552946490945
0.5715703399155392
0.46337993350469386
0.6102396585100185
0.9437432092726811
1.0500258921432306
0.6167200938835996
0.5121742705814116
0.28340239762119884
1.227790438419881
1.452203938877534
0.6634992231029955
0.4742062122277763
0.8694776980411495
0.30187442536738057
1.737236213589847
0.5286649226072889
0.8785972820414635
1.2373571101818552
0.23523512969167262
0.4225068004219459
0.16065612173145266
0.47884458043432143
0.7181970148000306
0.4450439461499804
0.4450439461499804
0.5906227496401055
1.1658209202370597
0.7334145139247251
0.6336169405040888
0.41113105311141585
0.8089239428568322
0.5986752183172978
0.6072487518669454
0.5866532200411423
0.4943417915173114
0.4430190190969804
0.361284856301363
0.7279276420424736
0.9490415611140476
0.683694212412479
0.39883416920444076
0.5456612456428078
0.643245692984044
0.4475467391074395
0.5813992818871149
0.4795365084331822
0.5597755676146825
1.452203938877534
0.2834335474352423
0.38521038248455175
0.9117609572469307
0.529596291188694
0.34644239950277783
0.27899929320548783
0.36013240078064196
0.4086138921420413
0.3596084314610765
0.731244263776141
1.098849318029012
1.032575845637659
0.600815093940345
0.4632305639081436
1.9010370686208091
0.14947006988859618
0.9376558915292884
0.49044421871235866
0.5180802146275838
0.516422363079259
0.5065347359733835
0.7220523194258307
0.6502781009679339
1.0075807779016688
0.5441888618544262
0.7400417021293263
1.7707696257827072
3.2397251599663055
0.40577443937598634
0.6623284313298415
0.632711294901581
0.23603801914513958
0.42591597282328403
0.9226852215940229
0.26750498862447725
0.5781909035002598
3.2404727154810815
0.31156496621831853
0.9469541290566701
0.49044421871235866
0.4143676599972604
0.697899915782266
0.35812942557958033
0.4909710172960842
1.4102984206414717
0.7649340108504166
2.229311317580382
0.6696851591941445
0.29737465193956647
1.042992505129095
0.4055637836683267
0.4600375052007807
1.0037027761580373
0.7133909744312152
0.7205086915528244
0.2965368864394007
0.8867368531268667
0.47315909621334246
1.1589441678621986
0.7539003954568573
1.546729767801497
0.7087613701396351
2.0613268461690266
0.6342517657433692
1.6499279132431799
0.549120997352643
0.41192558288348063
1.5267177361665485
0.4333292034143108
0.20299221264484857
0.45219045927073226
0.42070457082130036
0.23812856825847692
0.43308945378200947
0.2643301929320806
0.6623284313298415
0.4947416148516259
0.5994256851562623
0.43566593316098706
0.8192303648033225
0.40041883927949184
0.3762209655847454
0.36951588714988287
0.39205781712966425
0.6667331111934703
0.5622970131469212
0.37185367466036046
0.4239760734374413
0.29089032716480595
0.6738603433304801
0.43308945378200947
0.3682597531674921
0.5665172339838015
0.6240187177657986
1.1362361592615864
0.6118506419398637
1.3874271766150894
0.46623955295291164
0.3794045055090072
0.4867452853060621
1.098849318029012
0.3989424255135383
0.8488634601739437
0.7340720482347206
0.32442071027645036
0.5435361357856255
1.0914617000111402
0.45697354755112435
0.49393410153415024
0.26272907133036005
0.5925552877236088
0.2081733543064305
0.4865201625827716
1.9010370686208091
0.43178151127486725
0.6019432087979394
1.71032530253373
0.7460033514214752
0.6065791390499876
0.6015456618405689
0.44152154060030957
0.4840026157464051
0.6384652131400987
3.3923669728254677
0.3334836727545967
0.4480480559609771
1.0790201598624647
1.8568614869057583
0.5919449664967797
0.39638489395642273
0.6115097782866097
0.36383559741892574
0.6729560380471504
2.371741051976279
0.7243907052272262
0.6657420600586953
1.8568614869057583
0.39644254445932253
1.1589441678621986
0.34835933530012103
0.6634992231029955
2.0169709856655373
0.806753585176897
1.322520687668248
0.7508843119597449
0.35039885119200437
0.5578231544617007
0.43606323761651367
0.5345840172419043
0.26482130114100705
0.6015456618405689
0.2167768914048857
0.5860242454930841
0.44973871031766766
0.3988944705375876
0.7159337653549027
0.516930638776418
0.7133909744312152
0.9117609572469307
0.5859195564216415
0.30979672707155353
0.38111051348330266
0.5878685593294842
0.31116044818884614
0.48649431425269585
0.7334145139247251
0.5747895208086685
0.28730659679515613
0.49099100829741615
1.0307462581829239
0.6157908850478868
0.35108727076797597
0.6118506419398637
0.6696851591941445
0.5538441581215249
0.5193399195788772
0.3712955072425457
0.3704672420311633
1.380759470949052
0.4971533662758805
0.24894682973085522
0.5196384812804399
0.3920084274886358
0.46936724258024065
0.3629802953509991
0.23788310989625833
0.4798481353373209
0.6738603433304801
0.4952250470884814
2.4870571045811007
0.4441973662778086
0.48001376966455583
0.5164829334244143
0.5333547404801173
0.356532049760358
0.2540807528745536
0.6625075332066794
0.32524174866634825
0.988754821349265
0.9699171308952517
0.4338150664293566
0.2972842691748445
0.6382648249931226
0.8239026075485817
0.5041916788877789
0.5041916788877789
0.43425328185428874
0.9844493333612693
0.4678376903852149
0.6870576433144852
0.4417962860364661
0.500527993195486
0.4970729769743823
0.5143253197213201
0.437968607608012
0.2953108644705689
0.6914836243792614
0.613617563952602
0.7262643738523537
0.19659063903360682
0.6384652131400987
0.43279373234413226
0.4385267724146916
0.6122037106453792
0.7665552066830431
0.46912232075314797
1.3182617981178248
0.48774391130204214
0.4047605584416875
0.6003711952197451
0.4101433183171958
0.4971533662758805
0.4244626202408057
0.877358659844705
1.1356939485735693
0.36185847525359105
0.3753824680807596
0.9641589731869273
0.3264779067061739
1.4916836511619942
1.042992505129095
0.7665365437580776
0.283554793011139
0.3936352972635023
1.632287914507897
0.3808960480522771
0.4941155783020423
0.384213176510784
0.7665552066830431
0.7217099711742957
0.4026300510428451
0.4870141929829943
0.2853144286839515
0.34570446575460695
0.7381170659268406
0.544307145457833
0.5415006073007272
0.5512074905177019
0.2742020889283361
0.6844568997026242
0.29978415672681125
2.0613268461690266
0.5764677701052257
0.8271643714969885
0.6318794733787734
0.5054153984717569
0.6880975898620179
0.3759498827004977
0.4909710172960842
1.6350815910259466
0.3538314416004466
0.2413016121826299
0.42233390475835514
0.8276269134259944
1.4289877921644356
0.48174851556867354
0.356532049760358
0.3289016158989512
0.40916534021692746
0.5309661020687789
0.5747267188757714
0.6089565742024109
0.6446126489744374
0.7526470120660975
0.438525389483827
0.3183414875820896
0.4475467391074395
0.6557249951806678
1.032575845637659
0.8387990595844734
0.7051670938315728
0.6115097782866097
0.4794654614426361
0.6524844157643244
0.6787286773968327
0.6259138646776549
0.703940907691001
0.46652809638211823
0.30099567298278784
0.38057460971634116
0.44014931974328086
0.5016538000077809
0.3293073538385486
0.8068215849737684
0.5099942933270711
0.38533618714438717
0.5319495038215817
0.5469498910990395
0.5164829334244143
0.4436616769618331
0.5677910290548862
0.6016308956279373
0.593796749442497
0.7539141471047169
0.5523162969736348
0.4789986182890239
0.530428047334159
0.4007985090242987
0.4101433183171958
0.6232601337951922
0.17696817905971055
0.349017210689093
0.4419838593842936
0.25899000347869167
0.5887983432801703
0.5117433841649713
0.23466526020780676
0.5159739451793516
0.49328165960660286
0.437181912764357
0.4143202693576248
0.278399302038772
0.40886387789397777
0.43060857338886627
0.5657995882698774
0.2642238969534705
0.9226852215940229
0.23169468343270597
0.40036701118238105
0.32356640645641993
0.4792114366910001
0.353118920482661
0.413932074577228
0.7509396478914129
0.4018923118823708
0.593796749442497
0.5328313537015655
0.6600736716334219
0.3189289499786681
0.28997222124884603
0.556893003222331
0.3808960480522771
0.5177439655765781
1.7804674782978223
0.988754821349265
0.5333309741369074
0.6225087010159311
0.4430190190969804
0.5333547404801173
0.38685417267896416
0.477389696979498
0.3779632213400759
0.3280243106809794
0.44938867652267406
0.513409231449934
0.3796591504176289
0.7761522686829114
0.344204498635394
0.5736153759402094
0.5248344167488546
0.6744499298069738
0.33769076631440154
0.677188515464477
0.6015782502040983
0.5972682440241932
0.8856292245934173
0.36285548491667013
0.6382648249931226
1.4873583713959295
0.8856292245934173
0.4111712898439013
0.33208849859265116
0.8440057085315459
0.35961340889155735
0.5409915238793412
0.6235790731131373
0.537144055012435
0.4026300510428451
0.47364047634831985
0.7464504723115127
0.3924335855688271
0.6826042474840964
0.9515351540568143
0.4632205966732823
0.6669935587528693
0.6880975898620179
1.2069655076130816
0.4585935948361973
0.7262643738523537
0.16052912832008098
0.585838845605297
0.5929613700353173
0.5677910290548862
0.3720039962256327
0.82731794864122
0.24944975097394745
0.4357082693236004
0.3751283320702468
0.5319495038215817
1.6204660014658738
0.677188515464477
0.3010238688708981
0.4630647640018923
0.5011445498895242
1.9072432913032051
1.3114842850624986
0.4511738719215796
0.5936080530711384
0.41305644234188427
1.7804674782978223
0.28245366657411847
0.3622643359101554
0.6927639987675167
0.3453066687702617
0.43085647581938014
0.559765334717219
0.588175874915612
0.36781903566799046
0.4162443902830214
1.0500258921432306
0.6015782502040983
1.380759470949052
0.661119210655648
1.7754267873439828
0.600815093940345
0.47411160328980206
0.4278917246222944
0.26378633434886
0.6037256395005686
1.9063334191343357
0.49328165960660286
0.31940013564051245
0.8733110797462984
0.5906227496401055
1.227790438419881
0.9909430862870372
0.5489730856729191
0.7508843119597449
0.5390628848380193
0.4943417915173114
0.4054108185396569
0.5813992818871149
0.4202992020189282
0.7063878729616293
0.5730789061781069
0.19439008204278854
0.6709779456916837
0.8068215849737684
0.4684184279529903
0.33454651292276766
0.8908174643007246
0.6102396585100185
0.3785938182916601
0.9432264795122254
0.3790824605106342
0.3987804830579677
0.37860015271346037
0.4478510619731974
1.637899946851653
0.37640688623704643
0.6363417091814749
0.22453180849459786
0.4055637836683267
0.21382479671597074
0.6934406902637525
0.7036934967722785
0.5488423091569293
0.37185367466036046
0.35654588866853426
0.41503132435829365
0.4332699253615086
0.69060075292102
0.4684271955628598
0.2803066982279361
0.621958703464035
0.5586706951997783
0.88292316327016
0.687756287879629
0.6747188151860104
0.4718452627102137
0.4664349744221726
0.46745884441657787
0.560576762128908
0.6295609776824342
1.4838100769358484
0.4673998304332265
0.4721365505434914
0.4748665247773963
0.5767127765236241
0.6363674684563143
0.7505720360244494
0.7181970148000306
1.1658209202370597
0.49190413344448475
0.6898527731791313
0.43178221529703115
0.4795758792131614
0.23172130410649605
0.5786741361575953
0.6887633355177356
0.5200364739818487
0.6003711952197451
0.7154302197475051
0.613617563952602
0.7450677671502096
0.25434878427670854
0.3453066687702617
0.26522750018135544
0.5581844953583203
0.6016308956279373
0.5866532200411423
0.2043907359626687
0.6870576433144852
2.1993068339572925
0.7165732856604823
0.7063878729616293
0.5929613700353173
0.48091127049512494
0.5566910218355815
0.3926231596056922
1.9644768693008965
0.28368165449285215
0.22906011905732102
0.7220523194258307
0.46527037435934404
0.32614095694335205
0.47085588598610356
1.6334597819156782
0.4883024762650557
0.6162091823102974
1.577819956637648
0.451449495264103
0.519062878100562
1.7292240384278466
1.5346885609404344
0.5586706951997783
0.7649340108504166
0.4768408965917441
0.3331499334815612
0.282277949028303
0.41798260939530546
0.37462024375734176
0.37624556624505445
0.6225087010159311
0.2154568089938139
0.2954117447472311
0.4166659019359082
0.5488423091569293
0.6729560380471504
0.4425701502766149
0.8196292037601381
0.5860242454930841
0.4127058380939598
1.632287914507897
0.5336180406668425
0.3498740274773462
0.37624556624505445
0.3933479819232092
0.4602263926053123
0.25923589190474344
0.3146646069989689
0.6278418966815215
0.4457658819278828
0.5184066720010235
0.6891373977807859
0.22220803103241352
0.6555653773691075
1.4838100769358484
0.9092719450235662
1.6350815910259466
0.5972682440241932
1.0790201598624647
0.502546456530465
0.33834713071228406
0.3759498827004977
0.785619201383579
0.6927639987675167
0.4483737631902381
0.340144850307576
0.4675295333546073
0.5976311182705355
0.45697354755112435
0.8488634601739437
0.39784940736669716
1.608002418110492
0.5730789061781069
0.34345959227522915
1.2382504002027548
1.257582140275166
1.1415099397838349
0.2937986572779014
0.5472677143604691
0.5050419790476514
0.4223613573333392
1.577819956637648
1.9072432913032051
0.27629302310782605
0.3639229251257556
0.69060075292102
0.2833344685744526
0.4792114366910001
0.620848222599255
0.7629896252076857
0.33304932021408196
0.5902886534200892
0.38361597693855365
0.64342744709295
0.21632087259938476
0.4447906588982491
0.2582135441651324
0.4358182019756831
0.6167200938835996
0.4757430163718302
0.45172762297026525
0.7243907052272262
0.5329965380566422
0.8387990595844734
0.6648791821848444
0.385282692387361
0.4092996055623175
0.6036086948982554
0.351366481349094
0.43215972302098515
0.4143202693576248
0.540379803230857
1.2069655076130816
0.5213416650049069
0.516930638776418
0.548207765437888
0.8314427238753803
0.5984812557835198
0.661119210655648
0.4875057738105936
0.7162887658232628
0.2940973188913288
0.6730672269035018
1.6821295749648961
0.643245692984044
0.4457658819278828
0.6775970526698293
0.3885012822669141
1.2100128045946272
0.5754029846674652
0.44294054221680346
0.9469541290566701
0.4680255751420195
1.5111270588697139
0.427894363453927
0.6557249951806678
0.39883416920444076
0.46892777619747195
0.5581844953583203
0.549120997352643
0.39170209660075334
0.3808113621876999
1.152890068367045
0.38370459591666917
0.3808076068623596
1.2752533013967013
0.4855355859505617
0.5076225717354903
3.3176906025398325
0.571621915118044
0.29663783278500516
0.26618666777242705
0.4875430130121421
0.4718204384749944
0.2540184074884529
0.9961381146662127
0.4651469641319424
0.5222530902813632
0.5684398995802014
0.3581072853014194
0.38508698720994167
0.5458008582806053
0.06578188474523926
0.177656566748138
0.03734948432799448
0.792873259789039
-0.39426764834168626
1.4505114805777692
0.036754256624183405
0.06770584148635893
0.12195879557545257
-1.9845470595134949
0.057824392103788126
0.3458712819043298
-6.852376476515484E-4
1.620882274170305
0.09953010498733195
-0.4728686695051844
0.05290473326772964
0.4713575755067109
0.06598766227053657
0.18353494671650797
0.06839711289109494
-0.026792472253352462
-0.2104723577767478
2.819919323788407
-0.1322883241462801
1.2127208577051776
0.12446935002193472
-0.9059258036697819
0.031112036724843476
0.9182595163246876
0.06880987595441601
0.1210392506287928
-0.4398553868843018
0.7283466314801816
0.07524635458543835
-1.888780772055492E-4
0.06783412469797222
0.1431123366182501
0.076094650273407
-0.02361342557366988
0.11948446406468212
-0.39907814795539825
0.04311938321180871
0.6350147511484031
0.12481508354851772
-1.0022599466358404
-0.6844222456979658
1.0220927499366463
0.039989362651547476
0.7087998036718288
0.05214864308637776
0.4569394367652872
-0.24112095986742024
0.7028233112769345
0.07919783813788703
-0.06052261008041434
0.11742099163546914
-0.9679923101365737
0.0892934389127598
-0.09997148765582091
0.08447275695402122
-0.18457353157807296
0.12615926384859166
-0.9437734964892973
0.08788946804336309
-0.18349661411154325
0.011713347245896467
1.3101247850659827
0.11859442083517192
-0.8251958491979843
0.08479346825041321
-0.19261816762086706
0.11603007588185582
-0.999182986939879
-0.032361312839583704
2.351747476862298
0.10737078530269202
-0.8171234922892764
0.04252799720817997
0.7094990187704443
0.12711041628357791
-1.7863962625705088
0.18802556274875973
-0.9060636532704331
0.04300977643168556
0.6499260421373743
-0.14451869431871128
2.099275352580011
0.08702173429256593
-0.06945324844233332
0.08251939086533384
0.29688134918445985
0.12350980522012994
-1.4770956847381587
-0.011501433648192198
1.8041624914909409
0.04374096211118267
0.6334021475025635
0.011342074252545008
1.4381146813496066
0.037050684063227965
0.7783131607425494
0.07192383959261585
0.07756560462039111
0.13586701085094888
-1.693064498580374
-0.0359118991294551
2.4819648681413997
0.058352991871202284
0.33612368977333423
0.0649766962520002
0.19520395125750645
0.2278912652801204
-1.927877558279231
0.09792381638563774
-0.467888308344909
0.14849017821860633
-1.411826921820001
0.021946934422550888
1.1618102190585264
0.09706701835166436
-0.42836811950803344
0.10061681263122275
-0.4928565914082765
-0.16768256204145585
2.4164004996708766
-0.1312383580540428
2.0361075007334066
0.08650536383080498
-0.22444843193058397
0.070271423676126
0.09631227746878225
0.047703896963290936
0.5562337036728299
0.08731657138278025
-0.16084196552512783
0.07288865113597372
0.0422884117260545
0.13922972906616018
-0.9109166528471851
0.01916991269830998
1.1588517111036414
0.13419632935272208
-2.443268052355563
-0.0873063540798266
2.1754591570020465
0.03626831023351244
0.827988281606643
0.0503046766770497
0.5001563846896997
0.23381083938098482
-1.867283835660977
0.11078497651716859
-0.5404941356811118
0.13857972875053284
-1.9566449026722297
0.1467137774231092
-1.8162960330685711
0.09971767780606824
-0.4730825021887128
0.04525167238039243
0.6416325385027073
0.09478835183819004
-0.38463345096672213
0.4372144441033309
-0.5923290500383749
-0.020735565977923563
0.8549772218747312
-0.04567073095266805
1.0672671804896066
0.01720418099449151
0.6607056403376337
0.11421833876114332
-1.0478833031207186
0.06362512643786816
0.23927788912491285
0.0811794165326252
0.04259822727085574
0.08745665843128977
-0.23518576202508443
0.057675759169124804
0.3553734855225324
0.11937213774986785
-0.8334195634899549
0.008712390277330622
1.3555865936915124
0.3241748310138936
-0.18753494296744355
0.06375051510002848
0.21565194356420447
0.031278643482953866
0.9174579188612143
0.0406898854865084
0.6987554983508699
0.04569835832248581
0.5822941006054974
0.1665444513677292
-1.6699976256811424
0.042506670432300456
0.0995202228190202
0.12578332845225412
-1.4818551254212582
0.12973149176881998
-0.8267281288663716
0.13047287052430082
-2.1982983238515668
0.10189546907880463
-0.5168993371531739
0.0945676792963616
-0.37222607284447035
0.0828916788949456
-0.1493942039775785
-0.15122148545498837
2.194850020911921
0.3241748310138936
-0.18753494296744355
-0.20183467056120508
1.8593357483761987
0.008008888174601131
1.4994769124816179
-0.019982962642090735
2.0624778987689707
0.148171060104491
-1.3499551584967138
0.02649003867668902
0.9900460610764248
0.07078114806931052
0.6614355164137201
0.043611209214291256
0.6570807280705112
0.0657564752778568
0.17489677535150394
-0.013985226643882015
1.9022493306988761
0.0036404774573297227
1.5040670372482126
-0.02487155408823227
0.9042122463323693
-0.0971145644628512
1.6701494777458117
-0.40605718571954363
3.564599748360651
0.09291471340920833
-0.27986618287321263
-0.1352167706406126
2.0752120491771726
0.08530707021535236
-0.19623317208434998
0.14301090107765252
-1.2411655356371654
0.10208984832227715
-0.4866107863992297
0.12158312929623226
-1.0610744406949364
0.07767522361447095
-0.05383605182338893
0.14701407618938836
-1.3241666080865553
0.09638983195991498
-0.4146400133053742
0.096309788398385
-0.3820634271220332
0.1174563098291439
-1.1752790639264867
0.06967979788494977
0.07849031221480286
0.08370171848108539
0.07963675177181245
0.09521834253568862
-0.39348098905096884
0.07790558494626326
-0.05668166679332554
0.5535379967959276
-2.654460724168701
0.042099792534498075
0.691323566570908
-0.026180042180168474
2.2378697114974067
0.1833293682604953
-0.5286559027057656
0.09833801505653597
-0.48100659494241615
0.02959857054766853
0.982522010551495
0.13350212820294718
-1.0937456069678575
0.07882723877122212
-0.07455925335680641
0.04559601594788636
0.6002916804427608
0.0762090257979132
0.6792833034142488
0.13825363697184812
-1.1651727181826155
0.06372230981500378
0.21785837742337177
0.11019978562266988
-0.9277207661058323
0.06394723475444428
0.23268943193642413
0.061632545609548714
0.2673708937288679
-0.07948176518843572
1.787832689350898
0.08839183099556018
-0.2381955413822331
0.08524011930767693
-0.20064097247821555
0.11238413843539355
-0.8966766802687378
0.060042860350929976
0.3300728545108187
0.035330271368783445
0.9497936928960515
0.015312877954346056
0.687940170878332
0.10674872830686
-0.5848716440410575
0.006090832057269703
1.4179122709643628
0.17819333702089762
-1.1996380324145046
0.008831180675174913
1.3809084170298254
0.07439192811538013
0.3305670383900124
0.09546670817058024
-0.39293417462295305
0.005055160718462063
0.42770077483397584
0.1257971847689963
-1.2623827503053349
0.08338914241310762
-0.1644059465233067
0.09950904757640995
-0.5283416041422673
0.09200105210666301
-0.32720858238670003
0.022377936226584648
0.09828688713352676
0.11889708934057094
-1.0561250810318674
-0.008117718922031114
0.516657126965375
0.00612542778194401
1.430593121108057
0.06611425259635564
0.17292972920430452
-0.01619074524720338
0.28921508653706546
0.05613104826523222
0.38067906839054777
0.008849447693498769
1.352652168624896
0.12916545663461754
-1.6402727993730435
-0.04477701831732926
1.0201198096700101
0.1658169838037645
-0.4938261024868953
0.09929599917583037
-0.4624964914630503
0.05661135873924693
0.3593900763038563
0.04630294913570555
0.5655594823374238
0.07735564515795061
-0.04931189577382034
0.06987120130185846
0.09646329951223309
-0.02147863710720268
2.052667075569882
0.1252389443915527
-0.9726673685223517
-0.4499563659103937
0.5928748570946796
0.05078523778375661
0.5192217862758337
0.06627224845533905
0.1704867033568193
-0.0920639417083139
0.24520485692097585
0.07128532469103883
0.08935652830964835
0.15400986793663374
-0.40684859419893293
0.12827999809752796
-0.37436233721526907
0.08023790983518402
-0.10064511031299618
0.0627993574968478
0.25093227982658145
0.04210062645155933
0.7569250905456827
0.08703520316937483
-0.2514687398605888
0.05329203485572834
0.4295417097824827
0.0627300194112119
0.24927943305290914
0.09441125318164165
-0.377121318856638
0.13140769802570945
-1.0518256092649307
0.09469600193794271
-0.2703646233706435
0.08790030729036749
0.16186979185804382
-0.24112095986742024
0.7028233112769345
0.05906777151834871
0.3305747133252315
0.13787591609347047
-2.2596958710551824
0.027136850258391174
0.9745070531611348
0.02172282350843299
1.0872763323837855
-0.045958950907864136
2.023969780482707
0.17434164262306806
-1.8061324310186526
0.12498717615727567
-0.9396309990712961
0.09600944723770462
-0.4041378010874024
0.07476120284381677
0.004874027002854554
-0.04638940760715495
2.6349227852879196
0.10721013820115251
-0.7624648696628088
0.2825154219062219
-2.5518566566090604
0.05260136392986264
0.4551218164693706
0.10345386148052371
-0.6244499666002354
0.04017456321819003
0.7241950918332616
0.11432911321148426
-1.1183078113903286
0.1833293682604953
-0.5286559027057656
-0.03768367203732887
2.4198318205472775
0.16541741924545464
-2.0274524558139806
0.042583650768147616
0.31828750185485527
-0.41686657964028956
0.6083109706473743
0.029520961460203343
0.9980021979356412
0.11285613537813738
-1.3172036457428415
-0.21401111167358766
1.12729104338146
0.09811475671635589
-0.4344153541798901
0.11672710695005413
-1.3677686531404527
0.017829965420363785
0.631282646983161
0.07766560392303397
-0.08416668074670255
-0.1187727811960011
1.0839831644555051
0.1312081746217368
-1.709882257815418
0.2278865824764972
-1.2824758890511305
0.007424310599978868
0.8881466404309176
0.013308873916125036
1.2899053302781869
0.04346154175909602
0.015756200342342087
0.03893928884539338
0.6741343124788813
0.05667406192351152
0.3665367520167529
0.12448818064293835
-1.5048192057002823
0.09361638080814189
-0.3674913474519531
0.02678011578725622
0.9718530672478234
0.02513631212821053
1.0274695620220564
0.10201248652824967
-0.4816714506280867
-0.024383684491967036
2.1508596139252156
0.07054997511550744
0.081179548101249
-0.02828292155382664
2.2320418806263476
0.025873558142951013
1.0181037814099083
0.17083037126725412
-2.902678004704354
0.10448226183685848
-0.6019683116560602
0.10972725907477923
-0.8868088725366029
-0.028972051918971904
0.32858618765030934
0.15341147516076176
-2.504836897711049
0.08690089552068363
-0.24705075476525676
-0.0017669926035129013
1.635797928187124
0.10511713408647519
-0.5743777402047336
0.016597980953697897
1.2009500293615947
0.07909966093984963
-0.08464542820033186
0.10343021345818432
-0.5476417476482895
0.14084379294270283
-2.0266950563727546
0.05965173392667602
0.30849227768352216
0.02031728261730338
0.2538152074645201
0.1273270592829844
-0.9551180872222242
0.0651946007922405
0.1585668545422582
0.0913536437829707
-0.07805845720193344
-0.013425214561817696
1.9018134018753106
0.01639858574014315
1.2665540284290324
0.08591014358424086
0.014273959667430275
0.03717121764365556
1.0691775132945331
0.01050071810225749
1.3505023572781507
0.14054985852945973
-3.3772294748309117
0.05109472866150584
0.47150524873473965
0.007600987282832719
1.4358757000385804
0.05400540286560607
0.41711197954136464
0.1891989139641736
-0.6185005544035426
0.13132424565129538
-0.9328008793574515
0.043417796070111814
0.15136912184886303
0.1771680843726112
-0.5482441155167346
0.04613104182760573
0.6120527172221242
0.11341968900234717
-0.9504289970575177
0.12082631658532501
-1.0752155010186821
0.07855488488840992
-0.06613164022967909
0.07705711634492485
0.35324146607599166
0.04970589250128569
0.5142354516830253
-0.032434133734987124
2.37216576489083
0.07421308542483682
0.017718691310236595
0.06269668502450919
0.2406540257998634
0.13331784851029196
-1.0887716444138187
-0.09119676973063476
0.6007006171861656
-0.027538736149593446
2.191115261345398
0.08479781408235558
-0.15318514870770297
0.11080939259175274
-1.7531645649067211
0.06056261841260334
0.2932825287081556
0.07921996302312581
0.26024969354179306
0.06874566993071313
0.3769761696670113
0.11037901576254813
-2.4736192961474686
0.1091279574228632
-3.243970385185745
0.056119123656586986
0.37896072418139926
0.10699874548178669
-0.8019747685653247
0.11084259155730805
-1.5864944264444267
0.0799801679236729
-0.09691797305233811
0.10537498065228636
-0.7818394516057565
0.05324725855396336
0.745439160794245
0.09365205155499422
-0.06859722991488211
-0.37525086681436065
2.503754691514824
-0.07483845631137828
1.6573314397175782
0.003045769045284493
1.560622166236391
-0.36262854645526277
2.8314039676309593
0.09963685412679169
-0.5070819509154886
0.03175792039765173
0.9513023364405427
0.023692152037548715
1.0626279616744077
-0.027432518959686073
1.031175042173517
0.08592005231010028
-0.10930453598565501
0.14893129589824664
-3.0294659350140765
0.06752575057474179
0.17215835289748785
0.05667406192351152
0.3665367520167529
0.1796639611087386
-2.5079009710778446
0.1579871390709246
-0.6056503271963807
0.014783063376970513
0.5305051506212757
0.06826181208236226
0.13864203818014584
0.13418164369441213
-1.804121008186774
0.14416282056923524
-0.38626128951561767
0.06452385395001296
0.20426653977575893
-0.01867157863196554
2.070079543114843
0.11107512145148934
-0.6877135784507232
0.08899788758253711
-0.27346149346184134
0.015832967162133737
0.7891860785373339
0.11691999064351737
-0.8544021822266461
-0.022030196817036052
2.06419539577331
0.09284812755409456
-0.3298030358988692
0.1067810598932782
-0.5993320691285103
0.09937575273719443
-0.26361352164619783
0.14344204561106613
-0.6974741818179095
-0.09773541287303407
1.0944806930086208
0.0582946575186972
0.325186641578453
0.22035907038564695
-2.6329908390147536
0.1276306741877911
-0.9870011883968932
0.06318560194332483
0.4253634634532422
0.08308825426356947
-0.15585365695667075
0.15430487346709565
-1.4472006578566565
0.11190489025935717
-0.7394880221100031
0.11095379552768861
-0.665630149869853
0.13743815584055277
-2.440035961656105
0.13958449858743593
-1.8079408381089663
0.06631360280979717
0.17276988580148325
0.08079754208737877
0.21985283856128648
0.11440989958250528
-0.6645522944998945
0.005680801059874945
1.4562253432546615
0.05401821868398695
0.6231818216777314
0.030574090249067938
0.8376232534704933
0.05614689377498646
0.25599444224412604
0.04879297886459741
0.522083463854217
-0.9316081806438935
1.2821991162466835
0.09811819098944567
-0.4837213907893122
0.11152328361940984
-0.7396065939661813
0.1348063482743281
-1.8033111294959105
0.10124308818144555
-0.5519237487276621
0.038573010767218294
0.4923370662578327
0.044011960826167984
1.8201603747775765
0.028201851840101277
0.9664928946518019
-0.02132159493933379
0.798733834824236
0.03722813101230564
0.6923228560529974
0.07895475172051516
-0.12554111264906712
0.05625699828462683
0.3945607589713249
0.05970374886402897
0.3040893244474601
-0.09749876812518433
0.3475714746954744
0.05837193676162588
0.1511019791089753
0.09483834848123815
-0.38297708573443984
0.04785798145037365
0.5702134855258778
-0.014793029133170295
2.043458737910532
0.09329016371200177
-0.27095612541937697
0.003033247568996229
1.492374822780797
0.1091931355158377
-0.5788982372587401
0.03103121201500595
0.06328074537757394
0.038452913235963615
0.5835522971406242
0.05059220068703472
-0.01035251358647474
0.15216956193371348
-1.7474261254139514
0.07034691740842636
0.211694135826287
0.05931296416426137
0.17701372427490214
0.059697980275545244
0.22445480297820267
0.09426819752927872
-0.3704783385697636
-0.08669809805983908
1.6348306841767317
0.06245648902154789
0.11770218478971904
-0.19049775083240103
2.4985324403725477
0.1106372144549988
-0.6816251105356157
-0.05097835911603316
1.2405224591153166
0.2103120773417747
-1.741946977098992
-0.06378968089285995
3.1098548775680084
0.11831186836009
-1.0839500253981196
0.1206178939750781
-0.8561738970784558
0.04806072506285146
0.19533413519545875
0.05217826605095882
0.1152241537006847
-0.014082237067155575
1.8646494203908244
0.1384609422061332
-2.5906994408575144
-0.04135460558287958
2.61960708120782
-0.01087451291221025
1.8241204755907994
0.11255049825437617
-1.0001968339545229
0.030732131524689957
0.9070652404808452
-0.134416316048132
1.1769465569550788
0.10719747641775935
-0.8299151254946182
0.20281176929969835
-1.3864602295462518
0.09263632332569499
-0.33327569436541515
0.10707782143681478
-0.8951474231884321
0.10715023307582629
-0.8552139302334263
0.063673725829921
0.22598209329573218
0.028228160852506786
0.8128823379470377
0.018309452121254434
0.08422200007301685
0.05911897907219159
0.3103094886562392
-0.03357867672945699
0.6166172085880198
0.09750105837019486
-0.43561087618798083
0.0715113608973719
0.15926166381182408
-0.004772745343148235
1.1173849983001216
0.07790558494626326
-0.05668166679332554
0.09725575623172737
-0.4566643050613052
0.0877208340447561
-0.2449755527284114
-0.0961889764074121
0.44572167002091256
0.12917186981696568
-1.3874785276711903
0.14358097492404506
-1.7728487201033893
0.08864065368297935
-0.16485719330885948
-0.0016843059661940567
1.579543870074229
0.08149436808010639
-0.12546575395269627
-0.17061777664806077
2.4632802082825185
-0.0018414525424726668
1.7610051583554343
0.02737595327378768
0.9603235279503464
0.032803981740434
0.851503038759204
0.13552331656290137
-1.1269021473957939
0.03505946017858381
0.7952475094312588
0.03484387107829484
1.2179023610677757
0.027785918174391397
0.9680833478414829
0.08939704653727298
-0.27582943349135647
0.034449646871204796
0.8220894398292384
0.045474873291712785
0.5845646422647875
0.07950666708627042
-0.0895982663905224
0.11721574917613675
-0.942161287633247
0.01739425117641575
1.1867696264835785
0.09253669280979607
-0.2274046658873147
0.11074883610601924
-0.48903291448415503
-0.15413985247527406
1.1565846460631635
0.03576327221161544
0.17671855407630302
0.04502668029428605
0.6451927092653809
-0.12051594470198634
1.8834053188952848
0.038327290290925846
0.7592669941946005
0.05866755119035133
0.32476849896454235
-0.03939213925617972
1.0196959606798441
0.07472013720259645
0.00792763166394551
0.09600944723770462
-0.4041378010874024
0.16370835706301964
-2.7564754471457564
0.043727480796530764
0.6275349345077949
0.0740087273841305
0.013984579192172428
0.11768503613919899
-0.2849333582068416
0.11930486050168616
-1.089796962632397
-2.052358830677075E-5
0.6043412535272528
0.07547030319798566
-0.012001427267577216
0.07161031543017708
0.06758052582636509
0.06087071028649484
0.1157318324119204
0.09019699244727068
-0.2938371277570281
-0.06887730234916162
3.2076174346036814
0.12457359425820416
-0.9324722287761901
0.14629400570247164
-0.5862252368836215
0.056622553040523466
0.36307023553605716
0.1658169838037645
-0.4938261024868953
-0.10149819376857268
2.24326575406799
0.07633313326807466
0.14126576981062525
0.04352739509132787
1.08895382979038
0.12225076644152816
-1.3542337210857236
0.06978383398772486
0.09995909099047846
0.1049922292425114
-0.4220262940222968
-0.03266938690018487
1.1227277688854953
0.07862114589671139
-0.06047086531437036
0.1288320538379502
-1.6001796429391504
-0.04477701831732926
1.0201198096700101
0.1533879598082769
-2.1099294942807783
0.13664843029709545
-1.1388383808591216
0.13129829105476817
-1.095893315978487
0.025108504537674162
1.0272688511503572
0.10109477391133513
-0.5016368040048177
0.1146565586577057
-0.7487698593591233
0.019285375662905346
1.1518638928792524
-0.2891781618028641
1.4242291894523564
0.33550401228097065
-2.4844790238231593
-0.026035247549106667
1.2413435441770233
0.08124630954605595
-0.11568747165888822
0.06701564768357483
0.07315414914904628
0.03162688183700833
0.3310556517961685
0.08060127851456522
-0.17061474480467992
0.13102011350388026
-1.3099804788332055
0.09615862333922025
-0.33862045910675836
-0.31979571967727927
0.8490634051074811
0.038721531392612404
0.7236957759645944
0.11611950686012787
-1.0299143165747953
0.062444125729455985
0.2534921815415578
0.0494315879933638
0.5136422970347784
-0.09000034709480478
1.9455704224199033
0.04829991575787991
1.0331096259624686
-0.024231137625905102
2.2587198845628955
-0.025175029518535973
2.2695620867656143
0.0851337361149351
-0.19877259428346042
0.04645162435756558
0.6012571711691781
0.12490394421758617
-0.8661574355335916
0.03664460451697056
0.8678283312280641
0.06138525623666577
0.2707183561088728
0.07931520305188987
0.06138626484624054
-0.03077686442668903
2.3074787328405586
0.05760933192673391
0.34895768590128784
0.1133785413208708
-0.623321348529696
0.033184571457838
0.9170736617194696
0.03643217218393243
0.7917559125986258
0.1049922292425114
-0.4220262940222968
0.06159766093087727
0.2621080728572689
-0.047272556388267384
1.0955620982633758
0.041402851806739895
0.7506856731116719
-0.1384732603125607
2.1366596151525385
-0.06875195916597475
1.952878531722192
0.13510915878230406
-1.1177478758155734
-0.11951067459081739
1.9191596600574616
0.017235756020088353
1.370929137807475
-0.18165525817950307
0.7759139447218928
0.08800518584364941
-0.25570485617462296
0.15344650956949346
-1.4398729181048013
0.06863671540872365
0.13125015323416722
-0.06911718336308256
3.3828995295551225
-0.21795486098870406
2.4006071452917004
0.059169175092317845
0.0010211086715654688
0.08332459141510634
-0.18480997962004608
0.10629712191944425
-0.4799451565221268
0.04572114597796975
0.5866804505114561
0.11170680572310548
-1.0124930458748538
0.17300941630846395
-0.46324109999211266
0.1549110074618622
-0.8259814540534502
-0.21055045842285836
1.1379363670558496
-0.018133769134238583
1.9610053322170768
0.047043153885014816
0.3171192180677629
0.13505581346382525
-1.1570678030991453
0.059169175092317845
0.0010211086715654688
0.08336540954236928
-0.16179503696109887
-0.0349096096697698
0.7499728459325847
0.055036834850196704
0.43851143099013207
0.060401302690081336
0.302646218866138
0.08226350319649119
-0.12394220327185665
